{"learner":{"attributes":{"scikit_learn":"{\"_estimator_type\": \"classifier\"}"},"feature_names":[],"feature_types":[],"gradient_booster":{"model":{"gbtree_model_param":{"num_parallel_tree":"1","num_trees":"400"},"iteration_indptr":[0,1,2,3,4,5,6,7,8,9,10,11,12,13,14,15,16,17,18,19,20,21,22,23,24,25,26,27,28,29,30,31,32,33,34,35,36,37,38,39,40,41,42,43,44,45,46,47,48,49,50,51,52,53,54,55,56,57,58,59,60,61,62,63,64,65,66,67,68,69,70,71,72,73,74,75,76,77,78,79,80,81,82,83,84,85,86,87,88,89,90,91,92,93,94,95,96,97,98,99,100,101,102,103,104,105,106,107,108,109,110,111,112,113,114,115,116,117,118,119,120,121,122,123,124,125,126,127,128,129,130,131,132,133,134,135,136,137,138,139,140,141,142,143,144,145,146,147,148,149,150,151,152,153,154,155,156,157,158,159,160,161,162,163,164,165,166,167,168,169,170,171,172,173,174,175,176,177,178,179,180,181,182,183,184,185,186,187,188,189,190,191,192,193,194,195,196,197,198,199,200,201,202,203,204,205,206,207,208,209,210,211,212,213,214,215,216,217,218,219,220,221,222,223,224,225,226,227,228,229,230,231,232,233,234,235,236,237,238,239,240,241,242,243,244,245,246,247,248,249,250,251,252,253,254,255,256,257,258,259,260,261,262,263,264,265,266,267,268,269,270,271,272,273,274,275,276,277,278,279,280,281,282,283,284,285,286,287,288,289,290,291,292,293,294,295,296,297,298,299,300,301,302,303,304,305,306,307,308,309,310,311,312,313,314,315,316,317,318,319,320,321,322,323,324,325,326,327,328,329,330,331,332,333,334,335,336,337,338,339,340,341,342,343,344,345,346,347,348,349,350,351,352,353,354,355,356,357,358,359,360,361,362,363,364,365,366,367,368,369,370,371,372,373,374,375,376,377,378,379,380,381,382,383,384,385,386,387,388,389,390,391,392,393,394,395,396,397,398,399,400],"tree_info":[0,0,0,0,0,0,0,0,0,0,0,0,0,0,0,0,0,0,0,0,0,0,0,0,0,0,0,0,0,0,0,0,0,0,0,0,0,0,0,0,0,0,0,0,0,0,0,0,0,0,0,0,0,0,0,0,0,0,0,0,0,0,0,0,0,0,0,0,0,0,0,0,0,0,0,0,0,0,0,0,0,0,0,0,0,0,0,0,0,0,0,0,0,0,0,0,0,0,0,0,0,0,0,0,0,0,0,0,0,0,0,0,0,0,0,0,0,0,0,0,0,0,0,0,0,0,0,0,0,0,0,0,0,0,0,0,0,0,0,0,0,0,0,0,0,0,0,0,0,0,0,0,0,0,0,0,0,0,0,0,0,0,0,0,0,0,0,0,0,0,0,0,0,0,0,0,0,0,0,0,0,0,0,0,0,0,0,0,0,0,0,0,0,0,0,0,0,0,0,0,0,0,0,0,0,0,0,0,0,0,0,0,0,0,0,0,0,0,0,0,0,0,0,0,0,0,0,0,0,0,0,0,0,0,0,0,0,0,0,0,0,0,0,0,0,0,0,0,0,0,0,0,0,0,0,0,0,0,0,0,0,0,0,0,0,0,0,0,0,0,0,0,0,0,0,0,0,0,0,0,0,0,0,0,0,0,0,0,0,0,0,0,0,0,0,0,0,0,0,0,0,0,0,0,0,0,0,0,0,0,0,0,0,0,0,0,0,0,0,0,0,0,0,0,0,0,0,0,0,0,0,0,0,0,0,0,0,0,0,0,0,0,0,0,0,0,0,0,0,0,0,0,0,0,0,0,0,0,0,0,0,0,0,0,0,0,0,0,0,0,0,0,0,0,0,0,0,0,0,0,0,0,0,0,0,0,0,0,0,0,0,0,0,0,0,0,0,0,0,0],"trees":[{"base_weights":[4.784349E-8,-8.383859E-1,7.188793E-1,-1.2290503E0,3.8935803E-2,2.5844225E-1,1.061766E0,-1.4338276E-1,-5.908928E-2,-2.4326498E-2,1.2694974E-1,-4.129692E-2,5.0479658E-2,1.2082368E-1,-1.088748E-1],"categories":[],"categories_nodes":[],"categories_segments":[],"categories_sizes":[],"default_left":[0,0,0,0,0,0,0,0,0,0,0,0,0,0,0],"id":0,"left_children":[1,3,5,7,9,11,13,-1,-1,-1,-1,-1,-1,-1,-1],"loss_changes":[8.615994E4,2.2618438E4,1.2150605E4,5.9661016E3,7.061378E3,5.43413E3,1.389625E4,0E0,0E0,0E0,0E0,0E0,0E0,0E0,0E0],"parents":[2147483647,0,0,1,1,2,2,3,3,4,4,5,5,6,6],"right_children":[2,4,6,8,10,12,14,-1,-1,-1,-1,-1,-1,-1,-1],"split_conditions":[1.1967245E-11,7.460434E-12,2.9873475E-11,1.0637106E-11,2.5131135E-11,1.1646568E-11,4.322018E0,-1.4338276E-1,-5.908928E-2,-2.4326498E-2,1.2694974E-1,-4.129692E-2,5.0479658E-2,1.2082368E-1,-1.088748E-1],"split_indices":[210,56,188,121,320,211,355,0,0,0,0,0,0,0,0],"split_type":[0,0,0,0,0,0,0,0,0,0,0,0,0,0,0],"sum_hessian":[1.42955E5,6.599214E4,7.696286E4,4.5659793E4,2.0332348E4,3.28512E4,4.4111664E4,3.4566547E4,1.1093245E4,1.6540068E4,3.792279E3,8.81801E3,2.4033188E4,4.1299227E4,2.8124377E3],"tree_param":{"num_deleted":"0","num_feature":"418","num_nodes":"15","size_leaf_vector":"1"}},{"base_weights":[-1.5097437E-5,-7.052769E-1,6.984899E-1,-1.1116192E0,1.4792284E-1,1.0753441E-1,1.0218487E0,-1.2146598E-1,-1.0875383E-2,5.8977284E-2,-5.065419E-2,-8.384879E-3,1.4107272E-1,1.23929225E-1,-1.0445999E-2],"categories":[],"categories_nodes":[],"categories_segments":[],"categories_sizes":[],"default_left":[0,0,0,0,0,0,0,0,0,0,0,0,0,0,0],"id":1,"left_children":[1,3,5,7,9,11,13,-1,-1,-1,-1,-1,-1,-1,-1],"loss_changes":[7.0236484E4,2.459593E4,1.3687824E4,4.965879E3,6.61903E3,6.318693E3,1.1338754E4,0E0,0E0,0E0,0E0,0E0,0E0,0E0,0E0],"parents":[2147483647,0,0,1,1,2,2,3,3,4,4,5,5,6,6],"right_children":[2,4,6,8,10,12,14,-1,-1,-1,-1,-1,-1,-1,-1],"split_conditions":[2.0180194E-11,1.1891202E-11,2.267111E-11,1.3107062E-11,8.210683E-2,4.1744865E-11,4.1374504E-9,-1.2146598E-1,-1.0875383E-2,5.8977284E-2,-5.065419E-2,-8.384879E-3,1.4107272E-1,1.23929225E-1,-1.0445999E-2],"split_indices":[143,298,188,210,128,232,221,0,0,0,0,0,0,0,0],"split_type":[0,0,0,0,0,0,0,0,0,0,0,0,0,0,0],"sum_hessian":[1.4257284E5,7.09433E4,7.1629555E4,4.805599E4,2.2887305E4,2.5333168E4,4.6296387E4,4.3578277E4,4.4777114E3,1.3663047E4,9.224259E3,2.2090025E4,3.2431428E3,3.8804703E4,7.491684E3],"tree_param":{"num_deleted":"0","num_feature":"418","num_nodes":"15","size_leaf_vector":"1"}},{"base_weights":[-1.9930547E-5,-7.285925E-1,5.599137E-1,-1.0267779E0,8.157586E-2,1.8765068E-1,9.04159E-1,-1.1703493E-1,-8.750541E-3,1.1205733E-1,-3.016724E-2,-4.0124133E-2,4.152657E-2,1.0397742E-1,-9.978061E-2],"categories":[],"categories_nodes":[],"categories_segments":[],"categories_sizes":[],"default_left":[0,0,0,0,0,0,0,0,0,0,0,0,0,0,0],"id":2,"left_children":[1,3,5,7,9,11,13,-1,-1,-1,-1,-1,-1,-1,-1],"loss_changes":[5.7804227E4,1.4875256E4,1.0267086E4,6.069449E3,6.597045E3,5.1599824E3,1.0737801E4,0E0,0E0,0E0,0E0,0E0,0E0,0E0,0E0],"parents":[2147483647,0,0,1,1,2,2,3,3,4,4,5,5,6,6],"right_children":[2,4,6,8,10,12,14,-1,-1,-1,-1,-1,-1,-1,-1],"split_conditions":[1.092825E-11,1.8549733E-11,3.222775E-11,1.0914053E-11,1.0214951E0,1.1493293E-11,4.322018E0,-1.1703493E-1,-8.750541E-3,1.1205733E-1,-3.016724E-2,-4.0124133E-2,4.152657E-2,1.0397742E-1,-9.978061E-2],"split_indices":[210,55,188,298,97,211,355,0,0,0,0,0,0,0,0],"split_type":[0,0,0,0,0,0,0,0,0,0,0,0,0,0,0],"sum_hessian":[1.4169161E5,6.157341E4,8.011819E4,4.5007844E4,1.6565566E4,3.8493406E4,4.1624785E4,3.9040164E4,5.967683E3,4.4633545E3,1.2102212E4,1.073047E4,2.7762936E4,3.885479E4,2.7699963E3],"tree_param":{"num_deleted":"0","num_feature":"418","num_nodes":"15","size_leaf_vector":"1"}},{"base_weights":[-8.425206E-5,-6.305936E-1,5.5900824E-1,-9.432443E-1,1.5984099E-1,2.1327903E-2,8.263544E-1,-6.684094E-2,-1.2604146E-1,6.258335E-2,-4.703497E-2,-2.9789431E-2,9.076778E-2,1.0168725E-1,-1.621134E-2],"categories":[],"categories_nodes":[],"categories_segments":[],"categories_sizes":[],"default_left":[0,0,0,0,0,0,0,0,0,0,0,0,0,0,0],"id":3,"left_children":[1,3,5,7,9,11,13,-1,-1,-1,-1,-1,-1,-1,-1],"loss_changes":[4.949143E4,1.6306705E4,1.0696506E4,4.1206953E3,5.4926406E3,6.992645E3,9.359766E3,0E0,0E0,0E0,0E0,0E0,0E0,0E0,0E0],"parents":[2147483647,0,0,1,1,2,2,3,3,4,4,5,5,6,6],"right_children":[2,4,6,8,10,12,14,-1,-1,-1,-1,-1,-1,-1,-1],"split_conditions":[1.795522E-11,1.3430037E-11,1.9342472E-11,1.0268158E0,7.60233E-2,2.5433116E-11,4.1374504E-9,-6.684094E-2,-1.2604146E-1,6.258335E-2,-4.703497E-2,-2.9789431E-2,9.076778E-2,1.0168725E-1,-1.621134E-2],"split_indices":[143,298,320,361,128,56,221,0,0,0,0,0,0,0,0],"split_type":[0,0,0,0,0,0,0,0,0,0,0,0,0,0,0],"sum_hessian":[1.4039402E5,6.598273E4,7.441129E4,4.728091E4,1.8701814E4,2.4712055E4,4.969924E4,2.5332691E4,2.1948219E4,1.0751592E4,7.950223E3,1.8169062E4,6.5429917E3,4.166807E4,8.031168E3],"tree_param":{"num_deleted":"0","num_feature":"418","num_nodes":"15","size_leaf_vector":"1"}},{"base_weights":[-9.02244E-5,-5.2823555E-1,5.547735E-1,-8.7880677E-1,4.6591926E-2,-4.748807E-2,7.582773E-1,-9.925765E-2,-5.2687614E-3,3.8642246E-2,-4.5080557E-2,-3.611154E-2,4.780699E-2,8.4868856E-2,-1.0359359E-1],"categories":[],"categories_nodes":[],"categories_segments":[],"categories_sizes":[],"default_left":[0,0,0,0,0,0,0,0,0,0,0,0,0,0,0],"id":4,"left_children":[1,3,5,7,9,11,13,-1,-1,-1,-1,-1,-1,-1,-1],"loss_changes":[4.0694273E4,1.4337148E4,8.299932E3,4.1535664E3,4.556098E3,2.8194463E3,8.21173E3,0E0,0E0,0E0,0E0,0E0,0E0,0E0,0E0],"parents":[2147483647,0,0,1,1,2,2,3,3,4,4,5,5,6,6],"right_children":[2,4,6,8,10,12,14,-1,-1,-1,-1,-1,-1,-1,-1],"split_conditions":[2.156675E-11,1.0258723E-11,2.7453655E-2,5.7622327E-12,8.210683E-2,2.566816E-11,4.6440005E0,-9.925765E-2,-5.2687614E-3,3.8642246E-2,-4.5080557E-2,-3.611154E-2,4.780699E-2,8.4868856E-2,-1.0359359E-1],"split_indices":[143,298,347,364,128,188,399,0,0,0,0,0,0,0,0],"split_type":[0,0,0,0,0,0,0,0,0,0,0,0,0,0,0],"sum_hessian":[1.3886323E5,7.114456E4,6.771868E4,4.419235E4,2.695221E4,1.7103197E4,5.061548E4,3.8842867E4,5.349481E3,1.6012451E4,1.0939759E4,1.0711444E4,6.3917534E3,4.81878E4,2.4276785E3],"tree_param":{"num_deleted":"0","num_feature":"418","num_nodes":"15","size_leaf_vector":"1"}},{"base_weights":[-1.7657406E-4,-4.9142846E-1,5.195022E-1,-8.1393266E-1,6.394488E-2,1.0153562E-1,8.296473E-1,2.8267696E-2,-9.4328426E-2,-4.089711E-2,8.27231E-2,3.615301E-2,-4.0328965E-2,1.0639999E-1,-1.3994022E-2],"categories":[],"categories_nodes":[],"categories_segments":[],"categories_sizes":[],"default_left":[0,0,0,0,0,0,0,0,0,0,0,0,0,0,0],"id":5,"left_children":[1,3,5,7,9,11,13,-1,-1,-1,-1,-1,-1,-1,-1],"loss_changes":[3.502185E4,1.26309375E4,8.641418E3,6.3285977E3,9.35228E3,3.727256E3,8.695385E3,0E0,0E0,0E0,0E0,0E0,0E0,0E0,0E0],"parents":[2147483647,0,0,1,1,2,2,3,3,4,4,5,5,6,6],"right_children":[2,4,6,8,10,12,14,-1,-1,-1,-1,-1,-1,-1,-1],"split_conditions":[5.632168E-12,1.3896671E-11,2.614413E-11,1.0188358E0,-3.362554E-5,1.0085995E-9,3.9380694E-9,2.8267696E-2,-9.4328426E-2,-4.089711E-2,8.27231E-2,3.615301E-2,-4.0328965E-2,1.0639999E-1,-1.3994022E-2],"split_indices":[364,211,188,383,379,23,221,0,0,0,0,0,0,0,0],"split_type":[0,0,0,0,0,0,0,0,0,0,0,0,0,0,0],"sum_hessian":[1.3718086E5,7.051919E4,6.666167E4,4.4612395E4,2.5906795E4,2.8395643E4,3.8266023E4,4.706945E3,3.990545E4,1.5996295E4,9.910501E3,1.8742953E4,9.652689E3,3.0817287E4,7.448738E3],"tree_param":{"num_deleted":"0","num_feature":"418","num_nodes":"15","size_leaf_vector":"1"}},{"base_weights":[-1.07218875E-4,-5.163976E-1,4.2764467E-1,-7.516616E-1,1.7579888E-1,-2.4556952E-2,6.754087E-1,-5.199963E-2,-1.0653489E-1,6.0781956E-2,-4.2924665E-2,-3.2888293E-2,6.6327125E-2,9.976529E-2,1.6985172E-2],"categories":[],"categories_nodes":[],"categories_segments":[],"categories_sizes":[],"default_left":[0,0,0,0,0,0,0,0,0,0,0,0,0,0,0],"id":6,"left_children":[1,3,5,7,9,11,13,-1,-1,-1,-1,-1,-1,-1,-1],"loss_changes":[2.9933225E4,1.0001352E4,8.305034E3,3.3303457E3,4.072594E3,5.492676E3,7.8013867E3,0E0,0E0,0E0,0E0,0E0,0E0,0E0,0E0],"parents":[2147483647,0,0,1,1,2,2,3,3,4,4,5,5,6,6],"right_children":[2,4,6,8,10,12,14,-1,-1,-1,-1,-1,-1,-1,-1],"split_conditions":[1.6785686E-11,1.5169022E-11,1.960881E-11,1.0269644E0,8.033771E-12,1.9853869E-11,3.1041423E-11,-5.199963E-2,-1.0653489E-1,6.0781956E-2,-4.2924665E-2,-3.2888293E-2,6.6327125E-2,9.976529E-2,1.6985172E-2],"split_indices":[143,298,232,361,101,145,212,0,0,0,0,0,0,0,0],"split_type":[0,0,0,0,0,0,0,0,0,0,0,0,0,0,0],"sum_hessian":[1.3553803E5,6.1413094E4,7.412493E4,4.5834695E4,1.55784E4,2.6238025E4,4.7886906E4,2.6365682E4,1.9469014E4,9.088753E3,6.4896475E3,1.819033E4,8.047695E3,2.9245025E4,1.8641879E4],"tree_param":{"num_deleted":"0","num_feature":"418","num_nodes":"15","size_leaf_vector":"1"}},{"base_weights":[-9.752195E-5,-3.838056E-1,4.9017033E-1,-7.319457E-1,3.119205E-2,7.9181737E-1,2.0609578E-2,-1.0430922E-1,-5.106044E-2,1.2046596E-1,-1.69904E-2,2.694627E-2,1.13472596E-1,-3.1804074E-2,5.8597606E-2],"categories":[],"categories_nodes":[],"categories_segments":[],"categories_sizes":[],"default_left":[0,0,0,0,0,0,0,0,0,0,0,0,0,0,0],"id":7,"left_children":[1,3,5,7,9,11,13,-1,-1,-1,-1,-1,-1,-1,-1],"loss_changes":[2.5153277E4,1.0836642E4,8.3148E3,2.8085547E3,8.0750107E3,6.40184E3,4.3965166E3,0E0,0E0,0E0,0E0,0E0,0E0,0E0,0E0],"parents":[2147483647,0,0,1,1,2,2,3,3,4,4,5,5,6,6],"right_children":[2,4,6,8,10,12,14,-1,-1,-1,-1,-1,-1,-1,-1],"split_conditions":[2.8063005E-11,1.1217979E-11,2.8835606E-11,8.645665E-13,7.118993E-12,2.3476266E-11,1.0259713E0,-1.0430922E-1,-5.106044E-2,1.2046596E-1,-1.69904E-2,2.694627E-2,1.13472596E-1,-3.1804074E-2,5.8597606E-2],"split_indices":[55,211,344,387,233,188,9,0,0,0,0,0,0,0,0],"split_type":[0,0,0,0,0,0,0,0,0,0,0,0,0,0,0],"sum_hessian":[1.3370688E5,7.500469E4,5.8702195E4,4.0787465E4,3.4217223E4,3.5741242E4,2.2960951E4,1.6952742E4,2.383472E4,5.005185E3,2.921204E4,1.4165159E4,2.1576084E4,1.435991E4,8.601041E3],"tree_param":{"num_deleted":"0","num_feature":"418","num_nodes":"15","size_leaf_vector":"1"}},{"base_weights":[1.4582496E-5,-2.9641077E-1,5.579917E-1,-6.3886446E-1,1.13980725E-1,6.605335E-1,-8.3763546E-1,-1.01214804E-1,-4.115176E-2,-2.0592242E-2,3.9683115E-2,1.453386E-2,8.995422E-2,-1.2719457E-1,3.702938E-2],"categories":[],"categories_nodes":[],"categories_segments":[],"categories_sizes":[],"default_left":[0,0,0,0,0,0,0,0,0,0,0,0,0,0,0],"id":8,"left_children":[1,3,5,7,9,11,13,-1,-1,-1,-1,-1,-1,-1,-1],"loss_changes":[2.1827586E4,1.2112412E4,6.552907E3,3.9866172E3,3.5474705E3,5.2518906E3,1.6447288E3,0E0,0E0,0E0,0E0,0E0,0E0,0E0,0E0],"parents":[2147483647,0,0,1,1,2,2,3,3,4,4,5,5,6,6],"right_children":[2,4,6,8,10,12,14,-1,-1,-1,-1,-1,-1,-1,-1],"split_conditions":[2.4369238E-11,6.028546E-12,3.6628654E0,2.0896466E-12,-6.90955E-5,1.5535039E-11,3.7083095E-1,-1.01214804E-1,-4.115176E-2,-2.0592242E-2,3.9683115E-2,1.453386E-2,8.995422E-2,-1.2719457E-1,3.702938E-2],"split_indices":[320,122,355,409,181,363,293,0,0,0,0,0,0,0,0],"split_type":[0,0,0,0,0,0,0,0,0,0,0,0,0,0,0],"sum_hessian":[1.3196764E5,8.618325E4,4.5784387E4,4.6979973E4,3.9203277E4,4.2651176E4,3.1332117E3,1.778126E4,2.919871E4,1.8396805E4,2.080647E4,1.3516756E4,2.913442E4,2.3045566E3,8.286551E2],"tree_param":{"num_deleted":"0","num_feature":"418","num_nodes":"15","size_leaf_vector":"1"}},{"base_weights":[-2.568785E-6,-3.5622987E-1,4.110004E-1,-7.9005116E-1,-1.2656885E-1,7.6000303E-1,1.0310941E-1,2.1824198E-2,-8.7487794E-2,-4.3776747E-2,2.2138337E-2,1.9772632E-2,1.01062596E-1,-2.0817973E-2,4.5829706E-2],"categories":[],"categories_nodes":[],"categories_segments":[],"categories_sizes":[],"default_left":[0,0,0,0,0,0,0,0,0,0,0,0,0,0,0],"id":9,"left_children":[1,3,5,7,9,11,13,-1,-1,-1,-1,-1,-1,-1,-1],"loss_changes":[1.9057738E4,6.947208E3,6.494134E3,2.064585E3,4.937159E3,3.991622E3,3.5504504E3,0E0,0E0,0E0,0E0,0E0,0E0,0E0,0E0],"parents":[2147483647,0,0,1,1,2,2,3,3,4,4,5,5,6,6],"right_children":[2,4,6,8,10,12,14,-1,-1,-1,-1,-1,-1,-1,-1],"split_conditions":[2.3814917E-11,1.43467505E-5,4.8524385E-10,1.0160905E0,2.6900748E-2,2.3929493E-5,4.8208334E-2,2.1824198E-2,-8.7487794E-2,-4.3776747E-2,2.2138337E-2,1.9772632E-2,1.01062596E-1,-2.0817973E-2,4.5829706E-2],"split_indices":[143,358,287,9,39,358,172,0,0,0,0,0,0,0,0],"split_type":[0,0,0,0,0,0,0,0,0,0,0,0,0,0,0],"sum_hessian":[1.301645E5,6.9728805E4,6.043569E4,2.4135424E4,4.5593383E4,2.8325975E4,3.2109717E4,1.8728019E3,2.2262623E4,2.4067676E4,2.1525705E4,8.733656E3,1.9592318E4,1.7112557E4,1.4997161E4],"tree_param":{"num_deleted":"0","num_feature":"418","num_nodes":"15","size_leaf_vector":"1"}},{"base_weights":[1.5212531E-5,-4.830049E-1,2.6775208E-1,1.3299232E0,-5.4832125E-1,-7.0585613E-3,5.968023E-1,1.5068904E-1,-1.02002375E-1,-9.4502404E-2,-3.3201404E-2,4.1568737E-2,-3.4220956E-2,9.8281525E-2,-8.2769705E-4],"categories":[],"categories_nodes":[],"categories_segments":[],"categories_sizes":[],"default_left":[0,0,0,0,0,0,0,0,0,0,0,0,0,0,0],"id":10,"left_children":[1,3,5,7,9,11,13,-1,-1,-1,-1,-1,-1,-1,-1],"loss_changes":[1.663746E4,5.433541E3,7.484717E3,6.651616E2,3.7997783E3,6.3906333E3,8.798141E3,0E0,0E0,0E0,0E0,0E0,0E0,0E0,0E0],"parents":[2147483647,0,0,1,1,2,2,3,3,4,4,5,5,6,6],"right_children":[2,4,6,8,10,12,14,-1,-1,-1,-1,-1,-1,-1,-1],"split_conditions":[1.8771796E-5,-2.0627375E0,2.0946895E-11,6.1962544E-13,2.6640305E-12,1.0244728E0,4.145814E-11,1.5068904E-1,-1.02002375E-1,-9.4502404E-2,-3.3201404E-2,4.1568737E-2,-3.4220956E-2,9.8281525E-2,-8.2769705E-4],"split_indices":[380,178,276,168,409,339,168,0,0,0,0,0,0,0,0],"split_type":[0,0,0,0,0,0,0,0,0,0,0,0,0,0,0],"sum_hessian":[1.2864913E5,4.5878895E4,8.2770234E4,1.5947744E3,4.4284117E4,4.5102918E4,3.766732E4,1.4834213E3,1.1135311E2,1.5624942E4,2.8659176E4,1.994494E4,2.515798E4,2.2996182E4,1.4671138E4],"tree_param":{"num_deleted":"0","num_feature":"418","num_nodes":"15","size_leaf_vector":"1"}},{"base_weights":[1.1886253E-4,-3.572731E-1,3.167771E-1,-4.546836E-1,1.0726676E0,3.8453394E-1,-7.974224E-1,7.4973525E-3,-6.3521914E-2,1.5262648E-1,-4.7119036E-2,1.7017713E-2,7.6318845E-2,-1.1926063E-1,2.0218587E-2],"categories":[],"categories_nodes":[],"categories_segments":[],"categories_sizes":[],"default_left":[0,0,0,0,0,0,0,0,0,0,0,0,0,0,0],"id":11,"left_children":[1,3,5,7,9,11,13,-1,-1,-1,-1,-1,-1,-1,-1],"loss_changes":[1.4383186E4,8.317013E3,5.087615E3,5.345198E3,2.6675571E3,5.1559375E3,1.5263635E3,0E0,0E0,0E0,0E0,0E0,0E0,0E0,0E0],"parents":[2147483647,0,0,1,1,2,2,3,3,4,4,5,5,6,6],"right_children":[2,4,6,8,10,12,14,-1,-1,-1,-1,-1,-1,-1,-1],"split_conditions":[1.2594424E-11,4.2573015E-11,4.0373015E0,1.022408E0,8.6306335E-12,5.82892E-11,3.6320227E-1,7.4973525E-3,-6.3521914E-2,1.5262648E-1,-4.7119036E-2,1.7017713E-2,7.6318845E-2,-1.1926063E-1,2.0218587E-2],"split_indices":[210,232,113,97,366,143,29,0,0,0,0,0,0,0,0],"split_type":[0,0,0,0,0,0,0,0,0,0,0,0,0,0,0],"sum_hessian":[1.2709037E5,5.9705008E4,6.738536E4,5.5897816E4,3.8071926E3,6.3523047E4,3.8623162E3,1.4209729E4,4.1688086E4,2.9426353E3,8.645573E2,4.0562188E4,2.296086E4,2.7678748E3,1.0944414E3],"tree_param":{"num_deleted":"0","num_feature":"418","num_nodes":"15","size_leaf_vector":"1"}},{"base_weights":[1.3965837E-4,-4.4954598E-1,2.257681E-1,1.2736934E0,-5.0885665E-1,-1.9292843E-1,4.1652006E-1,1.4442578E-1,-8.610542E-2,-8.3509795E-2,-2.7935265E-2,6.54388E-2,-3.69731E-2,5.0613303E-2,-5.3231455E-2],"categories":[],"categories_nodes":[],"categories_segments":[],"categories_sizes":[],"default_left":[0,0,0,0,0,0,0,0,0,0,0,0,0,0,0],"id":12,"left_children":[1,3,5,7,9,11,13,-1,-1,-1,-1,-1,-1,-1,-1],"loss_changes":[1.2728841E4,4.284675E3,6.672103E3,5.0915552E2,3.0337627E3,3.9173613E3,4.8802188E3,0E0,0E0,0E0,0E0,0E0,0E0,0E0,0E0],"parents":[2147483647,0,0,1,1,2,2,3,3,4,4,5,5,6,6],"right_children":[2,4,6,8,10,12,14,-1,-1,-1,-1,-1,-1,-1,-1],"split_conditions":[1.7551094E-5,-2.0627375E0,1.9729981E-2,6.1962544E-13,2.1381803E-12,1.0198113E0,2.673697E0,1.4442578E-1,-8.610542E-2,-8.3509795E-2,-2.7935265E-2,6.54388E-2,-3.69731E-2,5.0613303E-2,-5.3231455E-2],"split_indices":[380,178,83,168,363,97,113,0,0,0,0,0,0,0,0],"split_type":[0,0,0,0,0,0,0,0,0,0,0,0,0,0,0],"sum_hessian":[1.2545243E5,4.191444E4,8.353799E4,1.3939346E3,4.0520508E4,2.6146645E4,5.7391348E4,1.2911003E3,1.0283424E2,1.673251E4,2.3787996E4,4.5134565E3,2.1633188E4,5.243918E4,4.9521665E3],"tree_param":{"num_deleted":"0","num_feature":"418","num_nodes":"15","size_leaf_vector":"1"}},{"base_weights":[7.8468336E-5,-2.675432E-1,3.4325993E-1,-3.7382457E-1,3.4838456E-1,6.898701E-1,7.7677205E-2,-5.948014E-3,-5.9514847E-2,1.1453446E-1,-1.7610667E-2,-3.2530803E-2,8.146388E-2,-1.9348374E-2,4.2213738E-2],"categories":[],"categories_nodes":[],"categories_segments":[],"categories_sizes":[],"default_left":[0,0,0,0,0,0,0,0,0,0,0,0,0,0,0],"id":13,"left_children":[1,3,5,7,9,11,13,-1,-1,-1,-1,-1,-1,-1,-1],"loss_changes":[1.140227E4,4.5663384E3,5.0072905E3,4.138753E3,4.2912124E3,2.9892441E3,2.8768262E3,0E0,0E0,0E0,0E0,0E0,0E0,0E0,0E0],"parents":[2147483647,0,0,1,1,2,2,3,3,4,4,5,5,6,6],"right_children":[2,4,6,8,10,12,14,-1,-1,-1,-1,-1,-1,-1,-1],"split_conditions":[2.6304207E-11,2.87E2,4.5817466E-10,7.194454E0,8.351644E-12,7.0047106E-12,5.206177E-2,-5.948014E-3,-5.9514847E-2,1.1453446E-1,-1.7610667E-2,-3.2530803E-2,8.146388E-2,-1.9348374E-2,4.2213738E-2],"split_indices":[143,131,287,306,366,233,172,0,0,0,0,0,0,0,0],"split_type":[0,0,0,0,0,0,0,0,0,0,0,0,0,0,0],"sum_hessian":[1.2414785E5,6.9752945E4,5.4394906E4,5.9488332E4,1.026461E4,2.3597012E4,3.0797895E4,2.457952E4,3.4908812E4,4.0736104E3,6.191E3,2.582548E3,2.1014465E4,1.7232676E4,1.3565219E4],"tree_param":{"num_deleted":"0","num_feature":"418","num_nodes":"15","size_leaf_vector":"1"}},{"base_weights":[1.8826159E-4,-2.07652E-1,3.9937595E-1,-4.2035413E-1,1.8885458E-1,1.2192883E0,2.276124E-1,-2.5625411E-2,-8.0191396E-2,6.1961886E-2,-2.227213E-2,-1.4855176E-2,1.260749E-1,3.4174547E-2,-9.142014E-2],"categories":[],"categories_nodes":[],"categories_segments":[],"categories_sizes":[],"default_left":[0,0,0,0,0,0,0,0,0,0,0,0,0,0,0],"id":14,"left_children":[1,3,5,7,9,11,13,-1,-1,-1,-1,-1,-1,-1,-1],"loss_changes":[1.0185894E4,6.809074E3,5.919587E3,3.2899688E3,4.997798E3,4.1307422E2,4.5296333E3,0E0,0E0,0E0,0E0,0E0,0E0,0E0,0E0],"parents":[2147483647,0,0,1,1,2,2,3,3,4,4,5,5,6,6],"right_children":[2,4,6,8,10,12,14,-1,-1,-1,-1,-1,-1,-1,-1],"split_conditions":[2.6624477E-11,1.5112777E-11,1.188309E-5,1.0271626E0,1.0236694E0,1.0171306E0,3.8475108E0,-2.5625411E-2,-8.0191396E-2,6.1961886E-2,-2.227213E-2,-1.4855176E-2,1.260749E-1,3.4174547E-2,-9.142014E-2],"split_indices":[232,211,160,361,207,163,311,0,0,0,0,0,0,0,0],"split_type":[0,0,0,0,0,0,0,0,0,0,0,0,0,0,0],"sum_hessian":[1.2276801E5,8.07338E4,4.203422E4,5.254596E4,2.8187832E4,7.2794937E3,3.4754723E4,3.674462E4,1.5801339E4,1.3772612E4,1.4415221E4,2.1408081E2,7.0654126E3,3.1597055E4,3.1576682E3],"tree_param":{"num_deleted":"0","num_feature":"418","num_nodes":"15","size_leaf_vector":"1"}},{"base_weights":[2.6482888E-4,-4.80791E-1,1.6074322E-1,-7.837216E-1,-2.1800776E-1,-1.0051859E-1,4.1468203E-1,-9.4231546E-2,-1.9830072E-2,2.4859099E-1,-2.7851084E-2,-2.6108474E-2,6.063369E-2,5.1488616E-2,-6.4439274E-2],"categories":[],"categories_nodes":[],"categories_segments":[],"categories_sizes":[],"default_left":[0,0,0,0,0,0,0,0,0,0,0,0,0,0,0],"id":15,"left_children":[1,3,5,7,9,11,13,-1,-1,-1,-1,-1,-1,-1,-1],"loss_changes":[9.360831E3,2.4144014E3,6.0323438E3,1.307917E3,2.6580713E3,5.0867065E3,4.8935166E3,0E0,0E0,0E0,0E0,0E0,0E0,0E0,0E0],"parents":[2147483647,0,0,1,1,2,2,3,3,4,4,5,5,6,6],"right_children":[2,4,6,8,10,12,14,-1,-1,-1,-1,-1,-1,-1,-1],"split_conditions":[1.4560069E-5,2.2304407E-12,2.9292004E-2,7.746715E-6,3.36637E-13,3.0532465E-11,2.8126988E0,-9.4231546E-2,-1.9830072E-2,2.4859099E-1,-2.7851084E-2,-2.6108474E-2,6.063369E-2,5.1488616E-2,-6.4439274E-2],"split_indices":[358,363,39,396,79,144,355,0,0,0,0,0,0,0,0],"split_type":[0,0,0,0,0,0,0,0,0,0,0,0,0,0,0],"sum_hessian":[1.21253766E5,3.0330867E4,9.09229E4,1.4088257E4,1.624261E4,4.4815562E4,4.6107336E4,1.1084731E4,3.0035254E3,3.5461404E2,1.5887996E4,3.6520387E4,8.295178E3,4.2122445E4,3.9848918E3],"tree_param":{"num_deleted":"0","num_feature":"418","num_nodes":"15","size_leaf_vector":"1"}},{"base_weights":[1.7155368E-4,-1.707374E-1,4.0238017E-1,-2.3879306E-1,8.807064E-1,8.9038426E-1,4.9475275E-2,-4.8109125E-2,-5.010743E-4,-8.745006E-2,1.01421826E-1,-2.0467056E-2,9.868358E-2,1.8585976E-2,-9.068948E-2],"categories":[],"categories_nodes":[],"categories_segments":[],"categories_sizes":[],"default_left":[0,0,0,0,0,0,0,0,0,0,0,0,0,0,0],"id":16,"left_children":[1,3,5,7,9,11,13,-1,-1,-1,-1,-1,-1,-1,-1],"loss_changes":[8.244269E3,6.0229473E3,6.1593516E3,4.4778716E3,1.1999719E3,1.5854941E3,2.7075193E3,0E0,0E0,0E0,0E0,0E0,0E0,0E0,0E0],"parents":[2147483647,0,0,1,1,2,2,3,3,4,4,5,5,6,6],"right_children":[2,4,6,8,10,12,14,-1,-1,-1,-1,-1,-1,-1,-1],"split_conditions":[2.807963E-11,4.9369266E-11,2.5008846E-11,1.0135821E-11,-4.9707736E-4,1.3893468E-11,4.7949424E0,-4.8109125E-2,-5.010743E-4,-8.745006E-2,1.01421826E-1,-2.0467056E-2,9.868358E-2,1.8585976E-2,-9.068948E-2],"split_indices":[320,232,342,121,225,55,179,0,0,0,0,0,0,0,0],"split_type":[0,0,0,0,0,0,0,0,0,0,0,0,0,0,0],"sum_hessian":[1.1993024E5,8.416634E4,3.5763902E4,7.90505E4,5.1158423E3,1.5008425E4,2.0755477E4,3.8817723E4,4.0232773E4,3.61242E2,4.7546006E3,1.2148301E3,1.3793595E4,1.8165732E4,2.589744E3],"tree_param":{"num_deleted":"0","num_feature":"418","num_nodes":"15","size_leaf_vector":"1"}},{"base_weights":[3.1629874E-4,-3.3603883E-1,1.8627422E-1,9.34341E-1,-3.8983884E-1,1.2945116E-1,1.1874596E0,-7.9099186E-2,1.4486603E-1,-7.783314E-2,-2.1313926E-2,2.5087614E-2,-3.3077657E-2,-1.2071349E-1,1.2754685E-1],"categories":[],"categories_nodes":[],"categories_segments":[],"categories_sizes":[],"default_left":[0,0,0,0,0,0,0,0,0,0,0,0,0,0,0],"id":17,"left_children":[1,3,5,7,9,11,13,-1,-1,-1,-1,-1,-1,-1,-1],"loss_changes":[7.404174E3,2.880837E3,4.3366543E3,1.5208662E3,2.7754546E3,4.031372E3,8.643428E2,0E0,0E0,0E0,0E0,0E0,0E0,0E0,0E0],"parents":[2147483647,0,0,1,1,2,2,3,3,4,4,5,5,6,6],"right_children":[2,4,6,8,10,12,14,-1,-1,-1,-1,-1,-1,-1,-1],"split_conditions":[1.8920908E-5,1.3559332E-13,1.0361804E0,3.4677832E-13,2.617209E-12,7.8798497E-1,1.8022167E-11,-7.9099186E-2,1.4486603E-1,-7.783314E-2,-2.1313926E-2,2.5087614E-2,-3.3077657E-2,-1.2071349E-1,1.2754685E-1],"split_indices":[380,168,163,58,409,113,276,0,0,0,0,0,0,0,0],"split_type":[0,0,0,0,0,0,0,0,0,0,0,0,0,0,0],"sum_hessian":[1.1837406E5,4.2144156E4,7.622991E4,1.7116077E3,4.043255E4,7.213685E4,4.0930535E3,3.9293433E2,1.3186733E3,1.2639619E4,2.7792932E4,5.7078027E4,1.5058823E4,1.4464885E2,3.9484045E3],"tree_param":{"num_deleted":"0","num_feature":"418","num_nodes":"15","size_leaf_vector":"1"}},{"base_weights":[3.2720223E-4,-1.9456714E-1,2.8044215E-1,-7.163168E-2,-5.320231E-1,6.2429374E-1,6.226131E-2,-2.2669932E-2,3.37292E-2,2.4526064E-1,-5.7041436E-2,3.0507186E-2,9.956487E-2,-1.9829785E-2,4.015963E-2],"categories":[],"categories_nodes":[],"categories_segments":[],"categories_sizes":[],"default_left":[0,0,0,0,0,0,0,0,0,0,0,0,0,0,0],"id":18,"left_children":[1,3,5,7,9,11,13,-1,-1,-1,-1,-1,-1,-1,-1],"loss_changes":[6.401607E3,2.8686409E3,3.609389E3,3.214113E3,2.1171138E3,2.2137334E3,2.6027056E3,0E0,0E0,0E0,0E0,0E0,0E0,0E0,0E0],"parents":[2147483647,0,0,1,1,2,2,3,3,4,4,5,5,6,6],"right_children":[2,4,6,8,10,12,14,-1,-1,-1,-1,-1,-1,-1,-1],"split_conditions":[2.9069941E-11,1.0270234E0,4.280394E-10,1.0259713E0,1.016733E0,2.9373185E-5,5.206177E-2,-2.2669932E-2,3.37292E-2,2.4526064E-1,-5.7041436E-2,3.0507186E-2,9.956487E-2,-1.9829785E-2,4.015963E-2],"split_indices":[143,119,287,31,9,378,172,0,0,0,0,0,0,0,0],"split_type":[0,0,0,0,0,0,0,0,0,0,0,0,0,0,0],"sum_hessian":[1.1725897E5,6.914828E4,4.811069E4,5.068493E4,1.846335E4,1.8675834E4,2.943486E4,3.6749594E4,1.3935339E4,2.3367934E2,1.822967E4,1.0043835E4,8.631999E3,1.66503E4,1.2784557E4],"tree_param":{"num_deleted":"0","num_feature":"418","num_nodes":"15","size_leaf_vector":"1"}},{"base_weights":[3.7232315E-4,-3.6913785E-1,1.421478E-1,-4.1380638E-1,1.0519364E0,-6.2517755E-2,3.713847E-1,4.061211E-2,-4.975335E-2,1.19731896E-1,-1.4930937E-1,5.351133E-2,-1.989548E-2,4.6832E-2,-5.685981E-2],"categories":[],"categories_nodes":[],"categories_segments":[],"categories_sizes":[],"default_left":[0,0,0,0,0,0,0,0,0,0,0,0,0,0,0],"id":19,"left_children":[1,3,5,7,9,11,13,-1,-1,-1,-1,-1,-1,-1,-1],"loss_changes":[6.0962886E3,2.0487358E3,3.9457788E3,2.1479639E3,3.6574377E2,3.623096E3,3.614837E3,0E0,0E0,0E0,0E0,0E0,0E0,0E0,0E0],"parents":[2147483647,0,0,1,1,2,2,3,3,4,4,5,5,6,6],"right_children":[2,4,6,8,10,12,14,-1,-1,-1,-1,-1,-1,-1,-1],"split_conditions":[1.623318E-5,1.8771275E-10,3.1941984E-2,1.0160369E0,1.1776129E-10,1.0187328E0,2.8126988E0,4.061211E-2,-4.975335E-2,1.19731896E-1,-1.4930937E-1,5.351133E-2,-1.989548E-2,4.6832E-2,-5.685981E-2],"split_indices":[358,231,39,185,407,141,355,0,0,0,0,0,0,0,0],"split_type":[0,0,0,0,0,0,0,0,0,0,0,0,0,0,0],"sum_hessian":[1.1636719E5,3.2267256E4,8.409993E4,3.1284598E4,9.826574E2,4.4431586E4,3.966834E4,2.8982834E3,2.8386314E4,9.300582E2,5.2599205E1,8.257702E3,3.6173883E4,3.596044E4,3.7079006E3],"tree_param":{"num_deleted":"0","num_feature":"418","num_nodes":"15","size_leaf_vector":"1"}},{"base_weights":[3.662831E-4,-1.3513054E-1,3.48035E-1,-2.0174268E-1,8.595825E-1,1.1149452E0,1.8440785E-1,3.4827136E-3,-4.43583E-2,-8.666505E-2,1.03409864E-1,-3.628087E-2,1.161797E-1,3.3372615E-2,-5.274406E-2],"categories":[],"categories_nodes":[],"categories_segments":[],"categories_sizes":[],"default_left":[0,0,0,0,0,0,0,0,0,0,0,0,0,0,0],"id":20,"left_children":[1,3,5,7,9,11,13,-1,-1,-1,-1,-1,-1,-1,-1],"loss_changes":[5.4312637E3,5.49719E3,4.057114E3,4.4485576E3,1.5695659E3,3.940381E2,2.8326768E3,0E0,0E0,0E0,0E0,0E0,0E0,0E0,0E0],"parents":[2147483647,0,0,1,1,2,2,3,3,4,4,5,5,6,6],"right_children":[2,4,6,8,10,12,14,-1,-1,-1,-1,-1,-1,-1,-1],"split_conditions":[3.225713E-11,4.4862558E-11,1.4392757E-5,1.0253233E0,9.067144E-12,1.0168711E0,1.2935881E-1,3.4827136E-3,-4.43583E-2,-8.666505E-2,1.03409864E-1,-3.628087E-2,1.161797E-1,3.3372615E-2,-5.274406E-2],"split_indices":[232,144,160,185,321,163,259,0,0,0,0,0,0,0,0],"split_type":[0,0,0,0,0,0,0,0,0,0,0,0,0,0,0],"sum_hessian":[1.1529185E5,8.296035E4,3.2331498E4,7.775424E4,5.206108E3,5.6841997E3,2.6647299E4,3.930585E4,3.844839E4,4.776314E2,4.7284766E3,1.7447049E2,5.5097295E3,2.2027344E4,4.6199546E3],"tree_param":{"num_deleted":"0","num_feature":"418","num_nodes":"15","size_leaf_vector":"1"}},{"base_weights":[5.7790783E-4,-3.0675313E-1,1.3835554E-1,-4.1851678E-1,3.0285355E-1,-2.2221887E-1,2.729478E-1,-5.5122327E-2,-4.7643232E-4,1.0023939E-1,-1.41661735E-2,6.136036E-2,-3.4780275E-2,4.0193584E-2,-1.8124295E-2],"categories":[],"categories_nodes":[],"categories_segments":[],"categories_sizes":[],"default_left":[0,0,0,0,0,0,0,0,0,0,0,0,0,0,0],"id":21,"left_children":[1,3,5,7,9,11,13,-1,-1,-1,-1,-1,-1,-1,-1],"loss_changes":[4.8314263E3,2.4064458E3,3.8234233E3,1.6388247E3,1.7018723E3,2.2480166E3,3.3610469E3,0E0,0E0,0E0,0E0,0E0,0E0,0E0,0E0],"parents":[2147483647,0,0,1,1,2,2,3,3,4,4,5,5,6,6],"right_children":[2,4,6,8,10,12,14,-1,-1,-1,-1,-1,-1,-1,-1],"split_conditions":[1.640049E-5,8.57689E-12,1.91775E-2,1.3262813E-1,2.5473015E0,4.8274105E-5,6.844751E-1,-5.5122327E-2,-4.7643232E-4,1.0023939E-1,-1.41661735E-2,6.136036E-2,-3.4780275E-2,4.0193584E-2,-1.8124295E-2],"split_indices":[380,364,413,368,184,412,377,0,0,0,0,0,0,0,0],"split_type":[0,0,0,0,0,0,0,0,0,0,0,0,0,0,0],"sum_hessian":[1.14099195E5,3.5317555E4,7.878165E4,2.9845984E4,5.4715693E3,2.1413621E4,5.7368027E4,2.2597693E4,7.2482896E3,2.1254548E3,3.3461147E3,2.79665E3,1.861697E4,4.4679402E4,1.2688625E4],"tree_param":{"num_deleted":"0","num_feature":"418","num_nodes":"15","size_leaf_vector":"1"}},{"base_weights":[4.8157317E-4,-2.2824395E-1,1.7648587E-1,-3.811679E-1,2.8504968E-1,8.8173604E-1,7.729107E-2,-4.736942E-2,2.1423792E-2,-3.4462836E-2,6.354194E-2,1.0195216E-1,-1.2580133E-2,7.210411E-2,-2.9572889E-3],"categories":[],"categories_nodes":[],"categories_segments":[],"categories_sizes":[],"default_left":[0,0,0,0,0,0,0,0,0,0,0,0,0,0,0],"id":22,"left_children":[1,3,5,7,9,11,13,-1,-1,-1,-1,-1,-1,-1,-1],"loss_changes":[4.5589834E3,3.8658213E3,4.4771846E3,2.0904624E3,2.4943242E3,1.0956768E3,3.8599868E3,0E0,0E0,0E0,0E0,0E0,0E0,0E0,0E0],"parents":[2147483647,0,0,1,1,2,2,3,3,4,4,5,5,6,6],"right_children":[2,4,6,8,10,12,14,-1,-1,-1,-1,-1,-1,-1,-1],"split_conditions":[1.1966796E-11,3.7352213E-5,1.188309E-5,1.45E2,2.4735114E-1,1.3438931E-1,2.2601476E-12,-4.736942E-2,2.1423792E-2,-3.4462836E-2,6.354194E-2,1.0195216E-1,-1.2580133E-2,7.210411E-2,-2.9572889E-3],"split_indices":[211,48,160,131,169,327,387,0,0,0,0,0,0,0,0],"split_type":[0,0,0,0,0,0,0,0,0,0,0,0,0,0,0],"sum_hessian":[1.1324589E5,4.9246953E4,6.3998938E4,3.794298E4,1.1303976E4,7.8906313E3,5.6108305E4,3.2839855E4,5.1031226E3,4.0412075E3,7.262768E3,6.9413555E3,9.492758E2,7.98725E3,4.8121055E4],"tree_param":{"num_deleted":"0","num_feature":"418","num_nodes":"15","size_leaf_vector":"1"}},{"base_weights":[4.8583848E-4,-1.3162404E-1,2.7947924E-1,-2.1759424E-2,-4.420774E-1,3.515418E-1,-8.388242E-1,1.1693372E-2,-3.0091008E-2,2.178366E-3,-6.378901E-2,-1.7861668E-2,5.3786237E-2,-1.304596E-1,7.0476614E-2],"categories":[],"categories_nodes":[],"categories_segments":[],"categories_sizes":[],"default_left":[0,0,0,0,0,0,0,0,0,0,0,0,0,0,0],"id":23,"left_children":[1,3,5,7,9,11,13,-1,-1,-1,-1,-1,-1,-1,-1],"loss_changes":[4.140901E3,2.6005264E3,2.9098018E3,2.1803982E3,1.8101707E3,3.350558E3,1.5725237E3,0E0,0E0,0E0,0E0,0E0,0E0,0E0,0E0],"parents":[2147483647,0,0,1,1,2,2,3,3,4,4,5,5,6,6],"right_children":[2,4,6,8,10,12,14,-1,-1,-1,-1,-1,-1,-1,-1],"split_conditions":[3.97689E-11,4.631723E-1,6.7460527E0,3.4866353E-5,6.9638925E0,5.321542E-12,3.720101E-1,1.1693372E-2,-3.0091008E-2,2.178366E-3,-6.378901E-2,-1.7861668E-2,5.3786237E-2,-1.304596E-1,7.0476614E-2],"split_indices":[143,113,47,26,284,365,359,0,0,0,0,0,0,0,0],"split_type":[0,0,0,0,0,0,0,0,0,0,0,0,0,0,0],"sum_hessian":[1.1234608E5,7.6243516E4,3.610256E4,5.6315434E4,1.9928086E4,3.391762E4,2.184938E3,3.7623273E4,1.8692158E4,5.91557E3,1.4012516E4,8.820298E3,2.5097322E4,1.6785865E3,5.0635162E2],"tree_param":{"num_deleted":"0","num_feature":"418","num_nodes":"15","size_leaf_vector":"1"}},{"base_weights":[4.6439352E-4,-3.3021823E-1,1.06153324E-1,-3.7468454E-1,1.0075504E0,-2.9908916E-1,1.9917415E-1,4.1454952E-2,-4.534371E-2,1.1424414E-1,-1.252024E-1,1.5185927E-2,-5.683241E-2,-1.0567225E-2,3.719608E-2],"categories":[],"categories_nodes":[],"categories_segments":[],"categories_sizes":[],"default_left":[0,0,0,0,0,0,0,0,0,0,0,0,0,0,0],"id":24,"left_children":[1,3,5,7,9,11,13,-1,-1,-1,-1,-1,-1,-1,-1],"loss_changes":[3.8990178E3,1.607687E3,3.1869307E3,1.6256206E3,2.664524E2,1.9163702E3,3.6218052E3,0E0,0E0,0E0,0E0,0E0,0E0,0E0,0E0],"parents":[2147483647,0,0,1,1,2,2,3,3,4,4,5,5,6,6],"right_children":[2,4,6,8,10,12,14,-1,-1,-1,-1,-1,-1,-1,-1],"split_conditions":[1.43467505E-5,1.8771275E-10,-2.9970413E-1,1.0162469E0,1.1776129E-10,3.4283889E-12,2.2308119E-2,4.1454952E-2,-4.534371E-2,1.1424414E-1,-1.252024E-1,1.5185927E-2,-5.683241E-2,-1.0567225E-2,3.719608E-2],"split_indices":[358,231,354,9,407,256,237,0,0,0,0,0,0,0,0],"split_type":[0,0,0,0,0,0,0,0,0,0,0,0,0,0,0],"sum_hessian":[1.115595E5,2.701913E4,8.4540375E4,2.6150625E4,8.6850507E2,1.57824375E4,6.875794E4,2.372263E3,2.3778363E4,8.200448E2,4.8460262E1,5.9003037E3,9.882134E3,2.487374E4,4.3884195E4],"tree_param":{"num_deleted":"0","num_feature":"418","num_nodes":"15","size_leaf_vector":"1"}},{"base_weights":[4.2274053E-4,-1.0574305E-1,3.1041285E-1,-1.5947537E-1,8.8328296E-1,1.055048E0,1.6077183E-1,3.6559105E-3,-3.6529772E-2,-7.904326E-2,1.0238749E-1,-1.6359724E-2,1.11580074E-1,3.0080289E-2,-4.99714E-2],"categories":[],"categories_nodes":[],"categories_segments":[],"categories_sizes":[],"default_left":[0,0,0,0,0,0,0,0,0,0,0,0,0,0,0],"id":25,"left_children":[1,3,5,7,9,11,13,-1,-1,-1,-1,-1,-1,-1,-1],"loss_changes":[3.6468313E3,4.386643E3,3.1497966E3,3.1588618E3,1.00169556E3,3.5038428E2,2.1773247E3,0E0,0E0,0E0,0E0,0E0,0E0,0E0,0E0],"parents":[2147483647,0,0,1,1,2,2,3,3,4,4,5,5,6,6],"right_children":[2,4,6,8,10,12,14,-1,-1,-1,-1,-1,-1,-1,-1],"split_conditions":[3.4885102E-11,5.1460235E-11,1.5731246E-5,1.0253233E0,9.541286E-12,1.0181118E0,1.4096487E-1,3.6559105E-3,-3.6529772E-2,-7.904326E-2,1.0238749E-1,-1.6359724E-2,1.11580074E-1,3.0080289E-2,-4.99714E-2],"split_indices":[232,144,160,185,321,163,303,0,0,0,0,0,0,0,0],"split_type":[0,0,0,0,0,0,0,0,0,0,0,0,0,0,0],"sum_hessian":[1.1080909E5,8.254101E4,2.8268084E4,7.828855E4,4.2524624E3,4.729143E3,2.3538941E4,4.0098113E4,3.819043E4,3.2916806E2,3.9232944E3,2.2448524E2,4.5046577E3,1.9421822E4,4.1171187E3],"tree_param":{"num_deleted":"0","num_feature":"418","num_nodes":"15","size_leaf_vector":"1"}},{"base_weights":[6.127618E-4,-3.251304E-1,9.5843025E-2,3.7942743E-1,-4.5859072E-1,6.3312285E-2,1.1252877E0,-5.885868E-2,1.12316124E-1,1.02745645E-1,-5.4320812E-2,1.2020889E-2,-5.3207617E-2,-1.1564123E-1,1.16097465E-1],"categories":[],"categories_nodes":[],"categories_segments":[],"categories_sizes":[],"default_left":[0,0,0,0,0,0,0,0,0,0,0,0,0,0,0],"id":26,"left_children":[1,3,5,7,9,11,13,-1,-1,-1,-1,-1,-1,-1,-1],"loss_changes":[3.4052913E3,2.3352073E3,2.844531E3,2.8482832E3,2.625921E3,2.7894297E3,2.1320947E2,0E0,0E0,0E0,0E0,0E0,0E0,0E0,0E0],"parents":[2147483647,0,0,1,1,2,2,3,3,4,4,5,5,6,6],"right_children":[2,4,6,8,10,12,14,-1,-1,-1,-1,-1,-1,-1,-1],"split_conditions":[2.6770177E-12,6.1616624E-13,1.0361804E0,1.0474477E-11,-1.4372863E0,3.2475492E-4,8.337511E-12,-5.885868E-2,1.12316124E-1,1.02745645E-1,-5.4320812E-2,1.2020889E-2,-5.3207617E-2,-1.1564123E-1,1.16097465E-1],"split_indices":[408,406,163,233,178,402,189,0,0,0,0,0,0,0,0],"split_type":[0,0,0,0,0,0,0,0,0,0,0,0,0,0,0],"sum_hessian":[1.0977313E5,2.4831723E4,8.4941414E4,3.954334E3,2.0877389E4,8.234049E4,2.6009216E3,1.7182008E3,2.236133E3,1.1241407E3,1.9753248E4,7.515894E4,7.181552E3,3.9569767E1,2.5613518E3],"tree_param":{"num_deleted":"0","num_feature":"418","num_nodes":"15","size_leaf_vector":"1"}},{"base_weights":[5.093359E-4,-2.9239267E-1,1.0221939E-1,3.1185192E-1,-3.743578E-1,-1.3042968E-2,4.1186348E-1,-1.7675091E-1,5.5314958E-2,-4.6084333E-2,2.0911933E-3,-6.5281796E-3,9.029848E-2,8.7387845E-2,8.591078E-3],"categories":[],"categories_nodes":[],"categories_segments":[],"categories_sizes":[],"default_left":[0,0,0,0,0,0,0,0,0,0,0,0,0,0,0],"id":27,"left_children":[1,3,5,7,9,11,13,-1,-1,-1,-1,-1,-1,-1,-1],"loss_changes":[3.2460334E3,1.3910374E3,2.8864885E3,1.6843738E3,8.454075E2,2.8203728E3,3.303804E3,0E0,0E0,0E0,0E0,0E0,0E0,0E0,0E0],"parents":[2147483647,0,0,1,1,2,2,3,3,4,4,5,5,6,6],"right_children":[2,4,6,8,10,12,14,-1,-1,-1,-1,-1,-1,-1,-1],"split_conditions":[-1.8773063E-1,1.015673E0,2.999006E-11,3.9305996E-13,6.3214725E-11,5.6877697E-11,2.6324387E-11,-1.7675091E-1,5.5314958E-2,-4.6084333E-2,2.0911933E-3,-6.5281796E-3,9.029848E-2,8.7387845E-2,8.591078E-3],"split_indices":[68,185,320,278,55,232,342,0,0,0,0,0,0,0,0],"split_type":[0,0,0,0,0,0,0,0,0,0,0,0,0,0,0],"sum_hessian":[1.0895792E5,2.8083088E4,8.087483E4,3.3540828E3,2.4729004E4,5.8936996E4,2.1937834E4,3.480935E2,3.0059893E3,2.0289475E4,4.439529E3,5.575817E4,3.178824E3,9.074164E3,1.2863669E4],"tree_param":{"num_deleted":"0","num_feature":"418","num_nodes":"15","size_leaf_vector":"1"}},{"base_weights":[6.477858E-4,-2.5489768E-1,1.0281639E-1,-3.1109068E-1,9.7079235E-1,3.928243E-1,-2.0357737E-2,-4.2899158E-2,2.0903273E-2,-6.579038E-2,1.6024093E-1,4.7897287E-2,-7.239954E-2,-2.0966938E-2,2.752691E-2],"categories":[],"categories_nodes":[],"categories_segments":[],"categories_sizes":[],"default_left":[0,0,0,0,0,0,0,0,0,0,0,0,0,0,0],"id":28,"left_children":[1,3,5,7,9,11,13,-1,-1,-1,-1,-1,-1,-1,-1],"loss_changes":[2.8231157E3,2.127399E3,2.7593433E3,1.8109768E3,1.3939863E3,2.2159155E3,3.0344543E3,0E0,0E0,0E0,0E0,0E0,0E0,0E0,0E0],"parents":[2147483647,0,0,1,1,2,2,3,3,4,4,5,5,6,6],"right_children":[2,4,6,8,10,12,14,-1,-1,-1,-1,-1,-1,-1,-1],"split_conditions":[1.5062003E-5,6.293838E-1,1.12690395E-2,1.7196035E-1,1.321296E-2,3.915929E-11,2.4676716E-11,-4.2899158E-2,2.0903273E-2,-6.579038E-2,1.6024093E-1,4.7897287E-2,-7.239954E-2,-2.0966938E-2,2.752691E-2],"split_indices":[380,283,349,214,414,278,145,0,0,0,0,0,0,0,0],"split_type":[0,0,0,0,0,0,0,0,0,0,0,0,0,0,0],"sum_hessian":[1.0812721E5,3.0882355E4,7.724486E4,2.9529303E4,1.3530544E3,2.3026893E4,5.4217965E4,2.4072707E4,5.4565947E3,3.7808295E2,9.749715E2,2.137839E4,1.6485021E3,3.3052383E4,2.1165584E4],"tree_param":{"num_deleted":"0","num_feature":"418","num_nodes":"15","size_leaf_vector":"1"}},{"base_weights":[5.757188E-4,-2.9211912E-1,8.668705E-2,2.6455894E-1,-3.674029E-1,-1.530426E-1,2.1301669E-1,-5.96412E-2,7.746981E-2,-4.6871677E-2,2.4694742E-3,3.680103E-2,-3.062508E-2,4.513397E-3,4.9186718E-2],"categories":[],"categories_nodes":[],"categories_segments":[],"categories_sizes":[],"default_left":[0,0,0,0,0,0,0,0,0,0,0,0,0,0,0],"id":29,"left_children":[1,3,5,7,9,11,13,-1,-1,-1,-1,-1,-1,-1,-1],"loss_changes":[2.7064016E3,1.023074E3,2.5127397E3,1.2778854E3,8.541831E2,2.2859287E3,2.5436775E3,0E0,0E0,0E0,0E0,0E0,0E0,0E0,0E0],"parents":[2147483647,0,0,1,1,2,2,3,3,4,4,5,5,6,6],"right_children":[2,4,6,8,10,12,14,-1,-1,-1,-1,-1,-1,-1,-1],"split_conditions":[-2.3091786E-1,1.015673E0,2.2308119E-2,2.521513E-5,-4.8014295E-5,1.022762E0,1.0259215E0,-5.96412E-2,7.746981E-2,-4.6871677E-2,2.4694742E-3,3.680103E-2,-3.062508E-2,4.513397E-3,4.9186718E-2],"split_indices":[68,185,237,136,247,97,31,0,0,0,0,0,0,0,0],"split_type":[0,0,0,0,0,0,0,0,0,0,0,0,0,0,0],"sum_hessian":[1.07376375E5,2.440857E4,8.2967805E4,2.9074236E3,2.1501146E4,2.86327E4,5.4335105E4,1.0816815E3,1.8257422E3,1.7086088E4,4.4150586E3,6.505714E3,2.2126986E4,3.3916652E4,2.0418455E4],"tree_param":{"num_deleted":"0","num_feature":"418","num_nodes":"15","size_leaf_vector":"1"}},{"base_weights":[5.2857987E-4,-1.6713662E-1,1.4400952E-1,-2.4301992E-1,4.9192587E-1,1.0040785E0,6.484081E-2,2.0177852E-2,-3.4184884E-2,-2.9075703E-2,9.046466E-2,1.146967E-1,-5.464823E-3,-3.9373967E-3,6.984345E-2],"categories":[],"categories_nodes":[],"categories_segments":[],"categories_sizes":[],"default_left":[0,0,0,0,0,0,0,0,0,0,0,0,0,0,0],"id":30,"left_children":[1,3,5,7,9,11,13,-1,-1,-1,-1,-1,-1,-1,-1],"loss_changes":[2.5745273E3,2.4682202E3,3.9266167E3,1.9454966E3,1.6463441E3,7.354082E2,3.4869753E3,0E0,0E0,0E0,0E0,0E0,0E0,0E0,0E0],"parents":[2147483647,0,0,1,1,2,2,3,3,4,4,5,5,6,6],"right_children":[2,4,6,8,10,12,14,-1,-1,-1,-1,-1,-1,-1,-1],"split_conditions":[1.3138695E-11,3.127909E-11,7.864556E-12,2.2446081E-12,1.589431E-11,1.49E2,1.8796706E-1,2.0177852E-2,-3.4184884E-2,-2.9075703E-2,9.046466E-2,1.146967E-1,-5.464823E-3,-3.9373967E-3,6.984345E-2],"split_indices":[211,232,233,255,233,241,170,0,0,0,0,0,0,0,0],"split_type":[0,0,0,0,0,0,0,0,0,0,0,0,0,0,0],"sum_hessian":[1.0701685E5,4.9349332E4,5.766752E4,4.425457E4,5.0947617E3,4.859833E3,5.2807688E4,8.0450854E3,3.620949E4,1.759101E3,3.335661E3,4.2818594E3,5.7797375E2,4.5349453E4,7.4582324E3],"tree_param":{"num_deleted":"0","num_feature":"418","num_nodes":"15","size_leaf_vector":"1"}},{"base_weights":[5.9577904E-4,-2.8096315E-1,7.966771E-2,-5.9456205E-1,-7.80813E-2,2.0061758E-1,-1.8163314E-1,-6.388437E-2,2.11856E-1,2.4143116E-1,-1.4656529E-2,-5.4395434E-2,2.6017565E-2,-2.3858622E-2,1.0861832E-1],"categories":[],"categories_nodes":[],"categories_segments":[],"categories_sizes":[],"default_left":[0,0,0,0,0,0,0,0,0,0,0,0,0,0,0],"id":31,"left_children":[1,3,5,7,9,11,13,-1,-1,-1,-1,-1,-1,-1,-1],"loss_changes":[2.3675427E3,1.4834393E3,2.6240063E3,1.1017283E3,2.4170771E3,2.5169827E3,1.8971912E3,0E0,0E0,0E0,0E0,0E0,0E0,0E0,0E0],"parents":[2147483647,0,0,1,1,2,2,3,3,4,4,5,5,6,6],"right_children":[2,4,6,8,10,12,14,-1,-1,-1,-1,-1,-1,-1,-1],"split_conditions":[1.322158E-5,2.0459838E-12,3.2465184E-1,2.8396264E-1,3.36637E-13,5.441035E-13,1.0383077E0,-6.388437E-2,2.11856E-1,2.4143116E-1,-1.4656529E-2,-5.4395434E-2,2.6017565E-2,-2.3858622E-2,1.0861832E-1],"split_indices":[358,363,355,104,79,102,163,0,0,0,0,0,0,0,0],"split_type":[0,0,0,0,0,0,0,0,0,0,0,0,0,0,0],"sum_hessian":[1.0634033E5,2.3315623E4,8.30247E4,9.157988E3,1.4157635E4,5.6754598E4,2.6270105E4,9.011671E3,1.4631764E2,3.7769308E2,1.3779941E4,4.202939E3,5.255166E4,2.5141506E4,1.1285994E3],"tree_param":{"num_deleted":"0","num_feature":"418","num_nodes":"15","size_leaf_vector":"1"}},{"base_weights":[4.6186813E-4,4.4451916E-1,-4.7148596E-2,-5.193702E-1,6.743398E-1,-7.140177E-2,9.706116E-1,-1.8070722E-2,-2.5228587E-1,-6.0126603E-2,8.309829E-2,5.6731045E-2,-1.08978655E-2,-1.0522671E-1,1.1253869E-1],"categories":[],"categories_nodes":[],"categories_segments":[],"categories_sizes":[],"default_left":[0,0,0,0,0,0,0,0,0,0,0,0,0,0,0],"id":32,"left_children":[1,3,5,7,9,11,13,-1,-1,-1,-1,-1,-1,-1,-1],"loss_changes":[2.236538E3,2.2695967E3,2.3584622E3,1.3380941E3,1.6533923E3,2.2398381E3,6.9746094E2,0E0,0E0,0E0,0E0,0E0,0E0,0E0,0E0],"parents":[2147483647,0,0,1,1,2,2,3,3,4,4,5,5,6,6],"right_children":[2,4,6,8,10,12,14,-1,-1,-1,-1,-1,-1,-1,-1],"split_conditions":[1.0158229E0,1.0120845E0,1.0383077E0,1.0221041E0,4.108722E-13,3.5E-9,1.8022167E-11,-1.8070722E-2,-2.5228587E-1,-6.0126603E-2,8.309829E-2,5.6731045E-2,-1.08978655E-2,-1.0522671E-1,1.1253869E-1],"split_indices":[229,361,163,295,102,226,276,0,0,0,0,0,0,0,0],"split_type":[0,0,0,0,0,0,0,0,0,0,0,0,0,0,0],"sum_hessian":[1.05785625E5,1.0242904E4,9.554272E4,1.9717864E3,8.271118E3,9.331984E4,2.222877E3,1.6876088E3,2.8417758E2,9.0429065E2,7.3668276E3,5.1843794E3,8.813546E4,1.5757732E2,2.0652998E3],"tree_param":{"num_deleted":"0","num_feature":"418","num_nodes":"15","size_leaf_vector":"1"}},{"base_weights":[5.9223536E-4,-5.130024E-2,3.976862E-1,3.882508E-1,-9.923183E-2,8.003766E-1,-3.5849085E-1,-6.814308E-2,6.1729576E-2,5.1254075E-2,-1.3833401E-2,-1.359653E-2,8.9564495E-2,-1.0996933E-1,1.8149232E-2],"categories":[],"categories_nodes":[],"categories_segments":[],"categories_sizes":[],"default_left":[0,0,0,0,0,0,0,0,0,0,0,0,0,0,0],"id":33,"left_children":[1,3,5,7,9,11,13,-1,-1,-1,-1,-1,-1,-1,-1],"loss_changes":[2.1715076E3,1.9636467E3,3.7090537E3,2.245705E3,2.0104077E3,7.0908594E2,1.6943821E3,0E0,0E0,0E0,0E0,0E0,0E0,0E0,0E0],"parents":[2147483647,0,0,1,1,2,2,3,3,4,4,5,5,6,6],"right_children":[2,4,6,8,10,12,14,-1,-1,-1,-1,-1,-1,-1,-1],"split_conditions":[1.1213886E-10,1.0158229E0,3.959223E-9,1.0120845E0,3.5E-9,1.2077382E-11,2.2576533E-2,-6.814308E-2,6.1729576E-2,5.1254075E-2,-1.3833401E-2,-1.359653E-2,8.9564495E-2,-1.0996933E-1,1.8149232E-2],"split_indices":[121,229,155,361,226,232,217,0,0,0,0,0,0,0,0],"split_type":[0,0,0,0,0,0,0,0,0,0,0,0,0,0,0],"sum_hessian":[1.0537932E5,9.320067E4,1.2178648E4,9.163232E3,8.4037445E4,7.9466987E3,4.23195E3,1.6156903E3,7.547542E3,5.047934E3,7.898951E4,7.338314E2,7.212867E3,1.7832094E3,2.4487407E3],"tree_param":{"num_deleted":"0","num_feature":"418","num_nodes":"15","size_leaf_vector":"1"}},{"base_weights":[6.973467E-4,-1.480084E-1,1.318784E-1,-1.9098072E-1,8.706849E-1,5.6064945E-1,-9.052499E-3,-2.1558307E-2,1.1005031E-1,-8.471055E-2,1.1194362E-1,8.015722E-2,-2.7256122E-2,-5.6370486E-2,1.0856138E-2],"categories":[],"categories_nodes":[],"categories_segments":[],"categories_sizes":[],"default_left":[0,0,0,0,0,0,0,0,0,0,0,0,0,0,0],"id":34,"left_children":[1,3,5,7,9,11,13,-1,-1,-1,-1,-1,-1,-1,-1],"loss_changes":[2.043275E3,2.1492275E3,3.362835E3,1.4969745E3,8.501138E2,2.763753E3,2.7324377E3,0E0,0E0,0E0,0E0,0E0,0E0,0E0,0E0],"parents":[2147483647,0,0,1,1,2,2,3,3,4,4,5,5,6,6],"right_children":[2,4,6,8,10,12,14,-1,-1,-1,-1,-1,-1,-1,-1],"split_conditions":[1.3514443E-11,1.5196033E-10,1.1755465E-11,2.1900798E-10,4.3691066E-12,1.124832E-1,1.5077584E-12,-2.1558307E-2,1.1005031E-1,-8.471055E-2,1.1194362E-1,8.015722E-2,-2.7256122E-2,-5.6370486E-2,1.0856138E-2],"split_indices":[211,187,79,231,365,217,388,0,0,0,0,0,0,0,0],"split_type":[0,0,0,0,0,0,0,0,0,0,0,0,0,0,0],"sum_hessian":[1.04741695E5,4.9091668E4,5.5650027E4,4.71054E4,1.98627E3,1.3765776E4,4.1884254E4,4.6225645E4,8.797507E2,2.5094246E2,1.7353276E3,1.0678211E4,3.0875654E3,7.327042E3,3.455721E4],"tree_param":{"num_deleted":"0","num_feature":"418","num_nodes":"15","size_leaf_vector":"1"}},{"base_weights":[7.929484E-4,5.10704E-2,-3.888382E-1,1.5661217E-3,6.4743596E-1,-6.7155737E-1,-1.3597661E-1,-3.1593796E-3,7.526825E-2,-7.982047E-3,9.5524155E-2,1.2609321E-2,-8.358084E-2,7.9804994E-2,-3.602892E-2],"categories":[],"categories_nodes":[],"categories_segments":[],"categories_sizes":[],"default_left":[0,0,0,0,0,0,0,0,0,0,0,0,0,0,0],"id":35,"left_children":[1,3,5,7,9,11,13,-1,-1,-1,-1,-1,-1,-1,-1],"loss_changes":[2.0374663E3,2.71963E3,8.497001E2,2.118619E3,1.5806548E3,7.3535254E2,1.3152227E3,0E0,0E0,0E0,0E0,0E0,0E0,0E0,0E0],"parents":[2147483647,0,0,1,1,2,2,3,3,4,4,5,5,6,6],"right_children":[2,4,6,8,10,12,14,-1,-1,-1,-1,-1,-1,-1,-1],"split_conditions":[1.5629745E0,6.728958E-11,2.5165134E-11,1.6874625E-10,5.6605957E-2,5.534329E-12,3.2809872E-5,-3.1593796E-3,7.526825E-2,-7.982047E-3,9.5524155E-2,1.2609321E-2,-8.358084E-2,7.9804994E-2,-3.602892E-2],"split_indices":[113,144,55,121,326,233,160,0,0,0,0,0,0,0,0],"split_type":[0,0,0,0,0,0,0,0,0,0,0,0,0,0,0],"sum_hessian":[1.040052E5,9.211915E4,1.1886056E4,8.5059375E4,7.0597725E3,5.610934E3,6.2751216E3,8.146391E4,3.5954705E3,2.0996472E3,4.9601255E3,9.581433E2,4.6527905E3,1.2146832E3,5.0604385E3],"tree_param":{"num_deleted":"0","num_feature":"418","num_nodes":"15","size_leaf_vector":"1"}},{"base_weights":[8.479689E-4,-2.3035197E-1,8.138795E-2,-1.2470057E-1,-5.5269295E-1,1.106342E-1,-6.7946905E-1,-7.2772535E-3,-1.08844005E-1,-1.3259315E-1,-4.7498967E-2,2.2006878E-3,4.3579455E-2,-9.145366E-2,5.819648E-2],"categories":[],"categories_nodes":[],"categories_segments":[],"categories_sizes":[],"default_left":[0,0,0,0,0,0,0,0,0,0,0,0,0,0,0],"id":36,"left_children":[1,3,5,7,9,11,13,-1,-1,-1,-1,-1,-1,-1,-1],"loss_changes":[1.9253334E3,9.096698E2,1.7064524E3,1.00684033E3,3.9555566E2,2.1280872E3,8.422505E2,0E0,0E0,0E0,0E0,0E0,0E0,0E0,0E0],"parents":[2147483647,0,0,1,1,2,2,3,3,4,4,5,5,6,6],"right_children":[2,4,6,8,10,12,14,-1,-1,-1,-1,-1,-1,-1,-1],"split_conditions":[-1.8773063E-1,1.027014E0,5.8657207E0,1.6618178E-4,-1.072378E0,3.451883E-11,1.2595433E-10,-7.2772535E-3,-1.08844005E-1,-1.3259315E-1,-4.7498967E-2,2.2006878E-3,4.3579455E-2,-9.145366E-2,5.819648E-2],"split_indices":[68,53,47,400,178,320,190,0,0,0,0,0,0,0,0],"split_type":[0,0,0,0,0,0,0,0,0,0,0,0,0,0,0],"sum_hessian":[1.0339469E5,2.6712193E4,7.668249E4,2.011924E4,6.5929526E3,7.384486E4,2.8376353E3,1.9091625E4,1.0276158E3,6.005649E2,5.9923877E3,5.80292E4,1.581566E4,2.3921367E3,4.4549844E2],"tree_param":{"num_deleted":"0","num_feature":"418","num_nodes":"15","size_leaf_vector":"1"}},{"base_weights":[7.829624E-4,-2.4269593E-1,7.644859E-2,4.0796632E-1,-3.640029E-1,-1.2917405E-2,3.6672667E-1,-3.1694487E-2,7.991E-2,-7.083422E-2,-1.12424055E-2,-1.4258093E-2,3.2693107E-2,7.564693E-2,5.4351497E-3],"categories":[],"categories_nodes":[],"categories_segments":[],"categories_sizes":[],"default_left":[0,0,0,0,0,0,0,0,0,0,0,0,0,0,0],"id":37,"left_children":[1,3,5,7,9,11,13,-1,-1,-1,-1,-1,-1,-1,-1],"loss_changes":[1.8963065E3,1.926348E3,2.0370889E3,1.0877024E3,1.7818372E3,2.645927E3,2.2504294E3,0E0,0E0,0E0,0E0,0E0,0E0,0E0,0E0],"parents":[2147483647,0,0,1,1,2,2,3,3,4,4,5,5,6,6],"right_children":[2,4,6,8,10,12,14,-1,-1,-1,-1,-1,-1,-1,-1],"split_conditions":[1.7706567E-2,1.2052161E-4,3.9977996E-5,1.2233838E-11,6.4843624E-11,4.6761954E-1,1.00296715E-11,-3.1694487E-2,7.991E-2,-7.083422E-2,-1.12424055E-2,-1.4258093E-2,3.2693107E-2,7.564693E-2,5.4351497E-3],"split_indices":[413,412,48,233,164,381,190,0,0,0,0,0,0,0,0],"split_type":[0,0,0,0,0,0,0,0,0,0,0,0,0,0,0],"sum_hessian":[1.0292956E5,2.4402936E4,7.8526625E4,3.8342974E3,2.0568637E4,6.0042645E4,1.8483979E4,1.34385E3,2.4904473E3,8.682698E3,1.1885939E4,4.3461293E4,1.6581352E4,8.222968E3,1.0261011E4],"tree_param":{"num_deleted":"0","num_feature":"418","num_nodes":"15","size_leaf_vector":"1"}},{"base_weights":[6.993028E-4,5.4634046E-2,-2.9008758E-1,1.0031427E-2,5.811225E-1,-5.41541E-1,-3.8262866E-2,1.3914195E-2,-1.6585473E-2,8.869251E-2,-2.7964337E-2,1.5542256E-2,-7.3374815E-2,6.887998E-2,-2.523142E-2],"categories":[],"categories_nodes":[],"categories_segments":[],"categories_sizes":[],"default_left":[0,0,0,0,0,0,0,0,0,0,0,0,0,0,0],"id":38,"left_children":[1,3,5,7,9,11,13,-1,-1,-1,-1,-1,-1,-1,-1],"loss_changes":[1.6056981E3,2.0280315E3,1.01430286E3,1.8080671E3,1.7756904E3,1.0738225E3,1.2458872E3,0E0,0E0,0E0,0E0,0E0,0E0,0E0,0E0],"parents":[2147483647,0,0,1,1,2,2,3,3,4,4,5,5,6,6],"right_children":[2,4,6,8,10,12,14,-1,-1,-1,-1,-1,-1,-1,-1],"split_conditions":[1.049375E0,1.3508776E-10,2.6594135E-11,5.8253574E-10,7.349146E-9,6.667427E-12,3.2809872E-5,1.3914195E-2,-1.6585473E-2,8.869251E-2,-2.7964337E-2,1.5542256E-2,-7.3374815E-2,6.887998E-2,-2.523142E-2],"split_indices":[113,121,55,23,67,233,160,0,0,0,0,0,0,0,0],"split_type":[0,0,0,0,0,0,0,0,0,0,0,0,0,0,0],"sum_hessian":[1.0237926E5,8.6361805E4,1.6017453E4,7.961782E4,6.7439785E3,8.0140596E3,8.0033936E3,4.5914305E4,3.370352E4,4.9760996E3,1.7678792E3,1.7323966E3,6.2816626E3,1.8198245E3,6.1835693E3],"tree_param":{"num_deleted":"0","num_feature":"418","num_nodes":"15","size_leaf_vector":"1"}},{"base_weights":[7.059451E-4,-2.3980972E-1,6.6948324E-2,-5.4275775E-1,-7.005198E-2,2.586198E-1,-8.565014E-2,9.197006E-2,-6.2700726E-2,2.1398194E-1,-1.3649441E-2,-3.0105492E-2,3.645361E-2,-2.7062237E-2,2.4297437E-2],"categories":[],"categories_nodes":[],"categories_segments":[],"categories_sizes":[],"default_left":[0,0,0,0,0,0,0,0,0,0,0,0,0,0,0],"id":39,"left_children":[1,3,5,7,9,11,13,-1,-1,-1,-1,-1,-1,-1,-1],"loss_changes":[1.6250885E3,1.1327156E3,2.339143E3,9.7515967E2,2.0731177E3,2.1014573E3,2.7066235E3,0E0,0E0,0E0,0E0,0E0,0E0,0E0,0E0],"parents":[2147483647,0,0,1,1,2,2,3,3,4,4,5,5,6,6],"right_children":[2,4,6,8,10,12,14,-1,-1,-1,-1,-1,-1,-1,-1],"split_conditions":[1.30542685E-5,1.9125767E-12,5.8253574E-10,-8.763003E-1,3.36637E-13,7.67806E-13,5.3787128E-11,9.197006E-2,-6.2700726E-2,2.1398194E-1,-1.3649441E-2,-3.0105492E-2,3.645361E-2,-2.7062237E-2,2.4297437E-2],"split_indices":[358,363,23,90,79,322,143,0,0,0,0,0,0,0,0],"split_type":[0,0,0,0,0,0,0,0,0,0,0,0,0,0,0],"sum_hessian":[1.0199742E5,2.2025105E4,7.997231E4,7.908849E3,1.4116256E4,3.5447613E4,4.4524703E4,4.3025638E2,7.478593E3,4.11123E2,1.3705133E4,5.640529E3,2.9807082E4,2.8489213E4,1.6035492E4],"tree_param":{"num_deleted":"0","num_feature":"418","num_nodes":"15","size_leaf_vector":"1"}},{"base_weights":[5.4467743E-4,-1.5212275E-2,9.316693E-1,-2.920619E-1,4.608647E-2,-9.9860764E-1,1.0912181E0,-1.7598625E-2,-6.1753016E-2,4.610594E-2,3.0182183E-4,-1.0457273E-1,2.2853196E-1,1.09723166E-1,-1.5669706E-1],"categories":[],"categories_nodes":[],"categories_segments":[],"categories_sizes":[],"default_left":[0,0,0,0,0,0,0,0,0,0,0,0,0,0,0],"id":40,"left_children":[1,3,5,7,9,11,13,-1,-1,-1,-1,-1,-1,-1,-1],"loss_changes":[1.4893461E3,1.6940525E3,5.2133154E2,6.835276E2,1.4606486E3,2.2426483E1,2.6668457E1,0E0,0E0,0E0,0E0,0E0,0E0,0E0,0E0],"parents":[2147483647,0,0,1,1,2,2,3,3,4,4,5,5,6,6],"right_children":[2,4,6,8,10,12,14,-1,-1,-1,-1,-1,-1,-1,-1],"split_conditions":[1.0383077E0,-3.9264613E-1,1.8022167E-11,1.0273604E0,1.0159123E0,5.759945E-6,3.2E2,-1.7598625E-2,-6.1753016E-2,4.610594E-2,3.0182183E-4,-1.0457273E-1,2.2853196E-1,1.09723166E-1,-1.5669706E-1],"split_indices":[163,244,276,97,9,375,285,0,0,0,0,0,0,0,0],"split_type":[0,0,0,0,0,0,0,0,0,0,0,0,0,0,0],"sum_hessian":[1.0150962E5,9.9821375E4,1.688243E3,1.8094703E4,8.172667E4,1.2848825E2,1.5597548E3,1.3338998E4,4.755706E3,7.683604E3,7.404306E4,1.2734263E2,1.1456214E0,1.5568201E3,2.9347456E0],"tree_param":{"num_deleted":"0","num_feature":"418","num_nodes":"15","size_leaf_vector":"1"}},{"base_weights":[5.5447686E-4,-1.26112E-1,1.14020474E-1,-1.6441508E-1,7.232592E-1,8.730784E-1,3.64127E-2,-1.0493656E-2,-6.907744E-2,-2.1362068E-2,1.0127858E-1,1.10184155E-1,3.141102E-2,-5.671086E-3,5.5064756E-2],"categories":[],"categories_nodes":[],"categories_segments":[],"categories_sizes":[],"default_left":[0,0,0,0,0,0,0,0,0,0,0,0,0,0,0],"id":41,"left_children":[1,3,5,7,9,11,13,-1,-1,-1,-1,-1,-1,-1,-1],"loss_changes":[1.4542285E3,1.5555522E3,3.1440664E3,1.4321622E3,5.5986E2,6.327051E2,2.3188638E3,0E0,0E0,0E0,0E0,0E0,0E0,0E0,0E0],"parents":[2147483647,0,0,1,1,2,2,3,3,4,4,5,5,6,6],"right_children":[2,4,6,8,10,12,14,-1,-1,-1,-1,-1,-1,-1,-1],"split_conditions":[1.3704099E-11,1.9855485E-11,8.636834E-12,1.0293378E0,9.76029E-12,4.0799297E-10,1.712092E-1,-1.0493656E-2,-6.907744E-2,-2.1362068E-2,1.0127858E-1,1.10184155E-1,3.141102E-2,-5.671086E-3,5.5064756E-2],"split_indices":[211,189,233,361,56,111,412,0,0,0,0,0,0,0,0],"split_type":[0,0,0,0,0,0,0,0,0,0,0,0,0,0,0],"sum_hessian":[1.0118046E5,4.7809152E4,5.337131E4,4.574696E4,2.06219E3,4.949687E3,4.842162E4,4.1103473E4,4.6434873E3,4.868978E2,1.575292E3,3.5115713E3,1.4381155E3,4.0998105E4,7.423518E3],"tree_param":{"num_deleted":"0","num_feature":"418","num_nodes":"15","size_leaf_vector":"1"}},{"base_weights":[5.89587E-4,7.0240244E-2,-2.0160261E-1,-3.4533456E-1,1.4033587E-1,1.188283E0,-2.4012937E-1,-6.5944284E-2,1.7483735E-2,9.5303476E-2,1.0496825E-2,-1.2930356E-1,1.4203417E-1,3.1143764E-2,-3.192979E-2],"categories":[],"categories_nodes":[],"categories_segments":[],"categories_sizes":[],"default_left":[0,0,0,0,0,0,0,0,0,0,0,0,0,0,0],"id":42,"left_children":[1,3,5,7,9,11,13,-1,-1,-1,-1,-1,-1,-1,-1],"loss_changes":[1.4160461E3,2.1786328E3,1.379833E3,1.7638016E3,1.839325E3,4.0204803E2,1.0947762E3,0E0,0E0,0E0,0E0,0E0,0E0,0E0,0E0],"parents":[2147483647,0,0,1,1,2,2,3,3,4,4,5,5,6,6],"right_children":[2,4,6,8,10,12,14,-1,-1,-1,-1,-1,-1,-1,-1],"split_conditions":[3.570873E-1,2.2193079E-12,1.3559332E-13,4.2594947E-12,2.0745946E-12,3.6274242E-13,-3.7128124E-5,-6.5944284E-2,1.7483735E-2,9.5303476E-2,1.0496825E-2,-1.2930356E-1,1.4203417E-1,3.1143764E-2,-3.192979E-2],"split_indices":[377,409,168,13,255,322,286,0,0,0,0,0,0,0,0],"split_type":[0,0,0,0,0,0,0,0,0,0,0,0,0,0,0],"sum_hessian":[1.0054932E5,7.47874E4,2.5761922E4,1.0793314E4,6.3994082E4,6.940389E2,2.5067883E4,6.729442E3,4.063873E3,2.667716E3,6.1326363E4,5.896594E1,6.35073E2,3.1460974E3,2.1921785E4],"tree_param":{"num_deleted":"0","num_feature":"418","num_nodes":"15","size_leaf_vector":"1"}},{"base_weights":[4.6280443E-4,-1.8842283E-1,7.5666055E-2,-4.973786E-1,1.0174961E-2,2.5402173E-1,-7.4899174E-2,-3.6633518E-2,-1.327777E-1,-4.9996242E-2,2.163639E-2,-5.1876935E-3,4.7649834E-2,1.1680621E-1,-1.1067368E-2],"categories":[],"categories_nodes":[],"categories_segments":[],"categories_sizes":[],"default_left":[0,0,0,0,0,0,0,0,0,0,0,0,0,0,0],"id":43,"left_children":[1,3,5,7,9,11,13,-1,-1,-1,-1,-1,-1,-1,-1],"loss_changes":[1.422861E3,1.7501904E3,1.9239403E3,1.2140442E3,1.8265455E3,2.2319204E3,1.7276016E3,0E0,0E0,0E0,0E0,0E0,0E0,0E0,0E0],"parents":[2147483647,0,0,1,1,2,2,3,3,4,4,5,5,6,6],"right_children":[2,4,6,8,10,12,14,-1,-1,-1,-1,-1,-1,-1,-1],"split_conditions":[1.5062003E-5,1.8448565E-2,6.215653E-10,3.990618E-11,2.255627E-2,3.773885E-11,3.291885E-11,-3.6633518E-2,-1.327777E-1,-4.9996242E-2,2.163639E-2,-5.1876935E-3,4.7649834E-2,1.1680621E-1,-1.1067368E-2],"split_indices":[380,415,243,79,237,164,353,0,0,0,0,0,0,0,0],"split_type":[0,0,0,0,0,0,0,0,0,0,0,0,0,0,0],"sum_hessian":[1.00165516E5,2.8523195E4,7.164232E4,1.1160094E4,1.7363104E4,3.2794324E4,3.8847996E4,9.64023E3,1.519863E3,4.9974233E3,1.236568E4,1.3808634E4,1.898569E4,1.0859442E3,3.776205E4],"tree_param":{"num_deleted":"0","num_feature":"418","num_nodes":"15","size_leaf_vector":"1"}},{"base_weights":[3.976983E-4,-1.3793689E-2,9.3105066E-1,3.7833374E-2,-2.9963478E-1,-1.0364244E0,1.074053E0,-6.343126E-3,2.841331E-2,1.10206E-1,-3.7061587E-2,-1.0893812E-1,5.391678E-2,-1.339327E-1,1.08321E-1],"categories":[],"categories_nodes":[],"categories_segments":[],"categories_sizes":[],"default_left":[0,0,0,0,0,0,0,0,0,0,0,0,0,0,0],"id":44,"left_children":[1,3,5,7,9,11,13,-1,-1,-1,-1,-1,-1,-1,-1],"loss_changes":[1.318227E3,1.4508105E3,4.2290186E2,2.0769553E3,1.4968137E3,9.105423E0,3.2346313E1,0E0,0E0,0E0,0E0,0E0,0E0,0E0,0E0],"parents":[2147483647,0,0,1,1,2,2,3,3,4,4,5,5,6,6],"right_children":[2,4,6,8,10,12,14,-1,-1,-1,-1,-1,-1,-1,-1],"split_conditions":[1.0383077E0,1.0277193E0,9.126966E-12,1.0259215E0,7.020806E-14,1.8267823E-11,1.1638983E0,-6.343126E-3,2.841331E-2,1.10206E-1,-3.7061587E-2,-1.0893812E-1,5.391678E-2,-1.339327E-1,1.08321E-1],"split_indices":[163,141,188,31,410,276,184,0,0,0,0,0,0,0,0],"split_type":[0,0,0,0,0,0,0,0,0,0,0,0,0,0,0],"sum_hessian":[9.980884E4,9.83107E4,1.49814E3,8.327152E4,1.5039182E4,1.0108815E2,1.3970519E3,5.901047E4,2.426105E4,7.241692E2,1.4315013E4,9.809954E1,2.9886081E0,4.7315845E0,1.3923203E3],"tree_param":{"num_deleted":"0","num_feature":"418","num_nodes":"15","size_leaf_vector":"1"}},{"base_weights":[3.8165398E-4,-7.975575E-2,1.587752E-1,-2.6519653E-1,1.1434577E-1,-3.5613394E-1,2.4832548E-1,1.0784872E-1,-2.9312445E-2,3.8890865E-2,-1.5970817E-2,-5.2443333E-2,1.3242415E-1,5.3164024E-2,-1.3143544E-3],"categories":[],"categories_nodes":[],"categories_segments":[],"categories_sizes":[],"default_left":[0,0,0,0,0,0,0,0,0,0,0,0,0,0,0],"id":45,"left_children":[1,3,5,7,9,11,13,-1,-1,-1,-1,-1,-1,-1,-1],"loss_changes":[1.2651354E3,2.3823015E3,1.5441064E3,1.2704951E3,2.433327E3,1.4037646E3,2.11309E3,0E0,0E0,0E0,0E0,0E0,0E0,0E0,0E0],"parents":[2147483647,0,0,1,1,2,2,3,3,4,4,5,5,6,6],"right_children":[2,4,6,8,10,12,14,-1,-1,-1,-1,-1,-1,-1,-1],"split_conditions":[-6.2040874E-7,1.9795172E-5,7.932992E-13,-2.3673995E0,5.036465E-5,1.8896775E-1,6.123536E-10,1.0784872E-1,-2.9312445E-2,3.8890865E-2,-1.5970817E-2,-5.2443333E-2,1.3242415E-1,5.3164024E-2,-1.3143544E-3],"split_indices":[374,378,322,178,292,18,23,0,0,0,0,0,0,0,0],"split_type":[0,0,0,0,0,0,0,0,0,0,0,0,0,0,0],"sum_hessian":[9.966795E4,6.618361E4,3.3484348E4,3.3846734E4,3.2336873E4,4.9602437E3,2.8524102E4,6.8840027E2,3.3158336E4,1.6153228E4,1.6183646E4,4.509299E3,4.5094473E2,1.3689649E4,1.4834453E4],"tree_param":{"num_deleted":"0","num_feature":"418","num_nodes":"15","size_leaf_vector":"1"}},{"base_weights":[3.3414527E-4,-5.4251585E-2,2.3677936E-1,-9.2981994E-2,7.6519614E-1,6.3808346E-1,1.875459E-2,-6.2247044E-3,-8.783906E-2,-7.1575455E-2,9.171309E-2,7.0820846E-2,-9.497365E-2,-8.5037276E-2,1.4487884E-2],"categories":[],"categories_nodes":[],"categories_segments":[],"categories_sizes":[],"default_left":[0,0,0,0,0,0,0,0,0,0,0,0,0,0,0],"id":46,"left_children":[1,3,5,7,9,11,13,-1,-1,-1,-1,-1,-1,-1,-1],"loss_changes":[1.2805934E3,2.5584585E3,1.6282375E3,1.8580492E3,8.192688E2,7.3012695E2,1.3220668E3,0E0,0E0,0E0,0E0,0E0,0E0,0E0,0E0],"parents":[2147483647,0,0,1,1,2,2,3,3,4,4,5,5,6,6],"right_children":[2,4,6,8,10,12,14,-1,-1,-1,-1,-1,-1,-1,-1],"split_conditions":[4.430685E-11,5.567471E-11,3.011398E-11,8.899914E-10,1.0626132E-11,9.74926E-4,2.7997943E-12,-6.2247044E-3,-8.783906E-2,-7.1575455E-2,9.171309E-2,7.0820846E-2,-9.497365E-2,-8.5037276E-2,1.4487884E-2],"split_indices":[232,144,298,32,321,226,344,0,0,0,0,0,0,0,0],"split_type":[0,0,0,0,0,0,0,0,0,0,0,0,0,0,0],"sum_hessian":[9.921855E4,8.060975E4,1.8608793E4,7.69726E4,3.6371497E3,6.550248E3,1.2058545E4,7.4074945E4,2.8976536E3,3.380798E2,3.2990698E3,6.273727E3,2.7652084E2,1.5274034E3,1.0531142E4],"tree_param":{"num_deleted":"0","num_feature":"418","num_nodes":"15","size_leaf_vector":"1"}},{"base_weights":[4.5917375E-4,7.587798E-2,-1.6682439E-1,-3.9314649E-1,1.2000862E-1,-4.8185208E-1,-5.9834417E-2,-5.4618653E-2,8.352339E-2,2.7570346E-2,-3.5675901E-3,3.7383933E-2,-5.9505522E-2,7.210306E-2,-1.0299989E-2],"categories":[],"categories_nodes":[],"categories_segments":[],"categories_sizes":[],"default_left":[0,0,0,0,0,0,0,0,0,0,0,0,0,0,0],"id":47,"left_children":[1,3,5,7,9,11,13,-1,-1,-1,-1,-1,-1,-1,-1],"loss_changes":[1.2459292E3,1.4089318E3,1.0342983E3,1.1009471E3,1.5080452E3,7.538318E2,7.722538E2,0E0,0E0,0E0,0E0,0E0,0E0,0E0,0E0],"parents":[2147483647,0,0,1,1,2,2,3,3,4,4,5,5,6,6],"right_children":[2,4,6,8,10,12,14,-1,-1,-1,-1,-1,-1,-1,-1],"split_conditions":[2.8231505E-1,4.686266E-13,1.8824937E-2,1.9165324E-11,1.0253731E0,1.0188358E0,-6.476289E-5,-5.4618653E-2,8.352339E-2,2.7570346E-2,-3.5675901E-3,3.7383933E-2,-5.9505522E-2,7.210306E-2,-1.0299989E-2],"split_indices":[355,102,83,167,185,185,286,0,0,0,0,0,0,0,0],"split_type":[0,0,0,0,0,0,0,0,0,0,0,0,0,0,0],"sum_hessian":[9.875331E4,6.8066484E4,3.0686824E4,5.852945E3,6.221354E4,7.77884E3,2.2907984E4,5.205023E3,6.47922E2,3.1105352E4,3.1108188E4,9.0859045E2,6.870249E3,1.1991742E3,2.170881E4],"tree_param":{"num_deleted":"0","num_feature":"418","num_nodes":"15","size_leaf_vector":"1"}},{"base_weights":[3.7136994E-4,-1.7553045E-1,6.744244E-2,-1.9196281E-1,1.5130568E0,8.892092E-2,-7.410815E-1,-4.0851175E-3,-3.6858846E-2,-1.3021235E-1,1.7226872E-1,2.4480473E-3,4.3468762E-2,3.095153E-1,-8.272956E-2],"categories":[],"categories_nodes":[],"categories_segments":[],"categories_sizes":[],"default_left":[0,0,0,0,0,0,0,0,0,0,0,0,0,0,0],"id":48,"left_children":[1,3,5,7,9,11,13,-1,-1,-1,-1,-1,-1,-1,-1],"loss_changes":[1.1605165E3,7.537265E2,1.2367384E3,7.177515E2,1.567475E2,1.5456674E3,6.1208545E2,0E0,0E0,0E0,0E0,0E0,0E0,0E0,0E0],"parents":[2147483647,0,0,1,1,2,2,3,3,4,4,5,5,6,6],"right_children":[2,4,6,8,10,12,14,-1,-1,-1,-1,-1,-1,-1,-1],"split_conditions":[-1.6717418E-1,4.054463E-1,7.895217E0,5.259037E-2,1.7638701E-12,5.0488523E-11,8.030935E-6,-4.0851175E-3,-3.6858846E-2,-1.3021235E-1,1.7226872E-1,2.4480473E-3,4.3468762E-2,3.095153E-1,-8.272956E-2],"split_indices":[68,194,47,62,33,232,180,0,0,0,0,0,0,0,0],"split_type":[0,0,0,0,0,0,0,0,0,0,0,0,0,0,0],"sum_hessian":[9.836416E4,2.7152332E4,7.121183E4,2.6891525E4,2.608064E2,6.93699E4,1.8419254E3,1.4493165E4,1.239836E4,1.7713655E1,2.4309274E2,5.8473312E4,1.0896586E4,3.971781E1,1.8022075E3],"tree_param":{"num_deleted":"0","num_feature":"418","num_nodes":"15","size_leaf_vector":"1"}},{"base_weights":[3.3059405E-4,-4.8307195E-2,2.4159326E-1,9.664122E-1,-6.661643E-2,-2.2454202E-1,6.5384316E-1,-5.247997E-2,1.6035679E-1,-5.801309E-2,-7.1448804E-4,-5.886195E-2,2.2922184E-2,9.077587E-2,-3.0785685E-2],"categories":[],"categories_nodes":[],"categories_segments":[],"categories_sizes":[],"default_left":[0,0,0,0,0,0,0,0,0,0,0,0,0,0,0],"id":49,"left_children":[1,3,5,7,9,11,13,-1,-1,-1,-1,-1,-1,-1,-1],"loss_changes":[1.1507299E3,1.5163002E3,3.1617466E3,1.3752402E3,2.4482202E3,1.2759141E3,2.1323567E3,0E0,0E0,0E0,0E0,0E0,0E0,0E0,0E0],"parents":[2147483647,0,0,1,1,2,2,3,3,4,4,5,5,6,6],"right_children":[2,4,6,8,10,12,14,-1,-1,-1,-1,-1,-1,-1,-1],"split_conditions":[-2.1358788E-5,8.990424E-6,1.6661081E-12,1.2405874E-11,1.9125767E-12,8.910761E-13,1.0278544E0,-5.247997E-2,1.6035679E-1,-5.801309E-2,-7.1448804E-4,-5.886195E-2,2.2922184E-2,9.077587E-2,-3.0785685E-2],"split_indices":[379,237,212,233,363,365,251,0,0,0,0,0,0,0,0],"split_type":[0,0,0,0,0,0,0,0,0,0,0,0,0,0,0],"sum_hessian":[9.806197E4,8.1610375E4,1.6451594E4,1.4455312E3,8.016484E4,7.721391E3,8.730203E3,4.3279218E2,1.0127391E3,8.319587E3,7.184526E4,4.283904E3,3.4374875E3,6.9066987E3,1.8235042E3],"tree_param":{"num_deleted":"0","num_feature":"418","num_nodes":"15","size_leaf_vector":"1"}},{"base_weights":[1.4141292E-4,3.3488104E-1,-3.531741E-2,-2.9813552E-1,5.701103E-1,8.076934E-3,-4.5471844E-1,-9.404108E-3,-2.0687428E-1,6.5656565E-2,-8.092081E-2,-5.514256E-3,3.234206E-2,9.926562E-2,-4.983988E-2],"categories":[],"categories_nodes":[],"categories_segments":[],"categories_sizes":[],"default_left":[0,0,0,0,0,0,0,0,0,0,0,0,0,0,0],"id":50,"left_children":[1,3,5,7,9,11,13,-1,-1,-1,-1,-1,-1,-1,-1],"loss_changes":[1.1598258E3,1.3938323E3,1.6080425E3,9.1637524E2,8.143013E2,1.596319E3,5.242709E2,0E0,0E0,0E0,0E0,0E0,0E0,0E0,0E0],"parents":[2147483647,0,0,1,1,2,2,3,3,4,4,5,5,6,6],"right_children":[2,4,6,8,10,12,14,-1,-1,-1,-1,-1,-1,-1,-1],"split_conditions":[1.0158765E0,1.0122283E0,8.824008E0,1.0220027E0,1.0194011E0,-2.1358788E-5,1.0150453E0,-9.404108E-3,-2.0687428E-1,6.5656565E-2,-8.092081E-2,-5.514256E-3,3.234206E-2,9.926562E-2,-4.983988E-2],"split_indices":[185,361,74,295,141,379,317,0,0,0,0,0,0,0,0],"split_type":[0,0,0,0,0,0,0,0,0,0,0,0,0,0,0],"sum_hessian":[9.771302E4,9.358465E3,8.8354555E4,2.5353674E3,6.8230977E3,8.007081E4,8.28374E3,2.2742698E3,2.6109756E2,6.421146E3,4.0195184E2,6.66998E4,1.3371021E4,2.4203506E2,8.041705E3],"tree_param":{"num_deleted":"0","num_feature":"418","num_nodes":"15","size_leaf_vector":"1"}},{"base_weights":[1.3246818E-4,-1.21844765E-2,9.228779E-1,1.4905305E-1,-9.02712E-2,-1.0148301E0,1.0610651E0,-5.8397282E-2,2.3042275E-2,-2.783407E-2,6.2712566E-3,-1.07227735E-1,5.2740317E-2,1.07186854E-1,-1.3248144E-1],"categories":[],"categories_nodes":[],"categories_segments":[],"categories_sizes":[],"default_left":[0,0,0,0,0,0,0,0,0,0,0,0,0,0,0],"id":51,"left_children":[1,3,5,7,9,11,13,-1,-1,-1,-1,-1,-1,-1,-1],"loss_changes":[1.1088851E3,1.2122472E3,3.4520483E2,1.8739238E3,1.8663557E3,8.190392E0,3.2354126E1,0E0,0E0,0E0,0E0,0E0,0E0,0E0,0E0],"parents":[2147483647,0,0,1,1,2,2,3,3,4,4,5,5,6,6],"right_children":[2,4,6,8,10,12,14,-1,-1,-1,-1,-1,-1,-1,-1],"split_conditions":[1.0383077E0,1.0226865E0,9.126966E-12,6.4926634E-13,1.0258219E0,1.8267823E-11,4.28E2,-5.8397282E-2,2.3042275E-2,-2.783407E-2,6.2712566E-3,-1.07227735E-1,5.2740317E-2,1.07186854E-1,-1.3248144E-1],"split_indices":[163,97,188,322,31,276,153,0,0,0,0,0,0,0,0],"split_type":[0,0,0,0,0,0,0,0,0,0,0,0,0,0,0],"sum_hessian":[9.756473E4,9.628055E4,1.2841804E3,3.1414123E4,6.486642E4,8.506241E1,1.199118E3,3.1381006E3,2.8276021E4,2.909629E4,3.5770133E4,8.230146E1,2.760951E0,1.194261E3,4.8569813E0],"tree_param":{"num_deleted":"0","num_feature":"418","num_nodes":"15","size_leaf_vector":"1"}},{"base_weights":[1.5921905E-4,-2.2051033E-1,4.896417E-2,1.9265974E-1,-4.544468E-1,-1.8177988E-2,3.1054652E-1,-4.6690743E-2,4.6867218E-2,-7.920865E-2,-2.4765655E-2,-2.1203138E-2,1.1781602E-2,6.9427475E-2,4.7195232E-3],"categories":[],"categories_nodes":[],"categories_segments":[],"categories_sizes":[],"default_left":[0,0,0,0,0,0,0,0,0,0,0,0,0,0,0],"id":52,"left_children":[1,3,5,7,9,11,13,-1,-1,-1,-1,-1,-1,-1,-1],"loss_changes":[1.0473464E3,1.7024697E3,1.3986667E3,1.1594978E3,7.85E2,1.6706722E3,1.6437052E3,0E0,0E0,0E0,0E0,0E0,0E0,0E0,0E0],"parents":[2147483647,0,0,1,1,2,2,3,3,4,4,5,5,6,6],"right_children":[2,4,6,8,10,12,14,-1,-1,-1,-1,-1,-1,-1,-1],"split_conditions":[1.2722594E-2,4.0118936E-2,4.3333584E-5,1.2233838E-11,6.2010355E-11,-5.9893388E-5,9.8183545E-12,-4.6690743E-2,4.6867218E-2,-7.920865E-2,-2.4765655E-2,-2.1203138E-2,1.1781602E-2,6.9427475E-2,4.7195232E-3],"split_indices":[413,191,48,233,164,71,190,0,0,0,0,0,0,0,0],"split_type":[0,0,0,0,0,0,0,0,0,0,0,0,0,0,0],"sum_hessian":[9.724675E4,1.7611875E4,7.9634875E4,6.3669595E3,1.1244915E4,6.337015E4,1.6264726E4,1.878161E3,4.4887983E3,4.2700693E3,6.974846E3,2.6126883E4,3.7243266E4,6.618824E3,9.645901E3],"tree_param":{"num_deleted":"0","num_feature":"418","num_nodes":"15","size_leaf_vector":"1"}},{"base_weights":[1.3091552E-4,5.226162E-1,-2.0736078E-2,-6.119891E-1,8.3920246E-1,-2.424647E-1,3.924289E-2,-8.135169E-2,8.997157E-2,-3.4703534E-2,1.2025181E-1,1.0527917E-1,-3.10171E-2,-4.0071804E-2,8.4171435E-3],"categories":[],"categories_nodes":[],"categories_segments":[],"categories_sizes":[],"default_left":[0,0,0,0,0,0,0,0,0,0,0,0,0,0,0],"id":53,"left_children":[1,3,5,7,9,11,13,-1,-1,-1,-1,-1,-1,-1,-1],"loss_changes":[1.0566326E3,1.3374333E3,1.2393865E3,2.4827286E2,1.2547341E3,1.7404138E3,1.4499651E3,0E0,0E0,0E0,0E0,0E0,0E0,0E0,0E0],"parents":[2147483647,0,0,1,1,2,2,3,3,4,4,5,5,6,6],"right_children":[2,4,6,8,10,12,14,-1,-1,-1,-1,-1,-1,-1,-1],"split_conditions":[-5.187991E-6,1.5449512E-5,1.3E1,1.6336564E-11,3.31893E-2,1.3559332E-13,8.20537E-13,-8.135169E-2,8.997157E-2,-3.4703534E-2,1.2025181E-1,1.0527917E-1,-3.10171E-2,-4.0071804E-2,8.4171435E-3],"split_indices":[226,268,395,343,216,168,322,0,0,0,0,0,0,0,0],"split_type":[0,0,0,0,0,0,0,0,0,0,0,0,0,0,0],"sum_hessian":[9.69128E4,3.7209321E3,9.319186E4,8.115404E2,2.9093916E3,1.9841031E4,7.335083E4,7.1648627E2,9.50541E1,6.821603E2,2.2272314E3,9.84897E2,1.8856135E4,6.7957554E3,6.655507E4],"tree_param":{"num_deleted":"0","num_feature":"418","num_nodes":"15","size_leaf_vector":"1"}},{"base_weights":[1.1138264E-4,3.5060037E-2,-3.182867E-1,1.5404602E-4,7.205268E-1,-8.726592E-1,3.0708095E-2,-6.7197205E-3,2.7017042E-2,8.118915E-2,-5.7329286E-2,-6.382508E-2,-1.5517445E-1,-6.02772E-3,1.7554937E-1],"categories":[],"categories_nodes":[],"categories_segments":[],"categories_sizes":[],"default_left":[0,0,0,0,0,0,0,0,0,0,0,0,0,0,0],"id":54,"left_children":[1,3,5,7,9,11,13,-1,-1,-1,-1,-1,-1,-1,-1],"loss_changes":[1.075186E3,2.0832358E3,1.8490095E3,1.5067024E3,4.9917407E2,5.8672656E2,9.206133E2,0E0,0E0,0E0,0E0,0E0,0E0,0E0,0E0],"parents":[2147483647,0,0,1,1,2,2,3,3,4,4,5,5,6,6],"right_children":[2,4,6,8,10,12,14,-1,-1,-1,-1,-1,-1,-1,-1],"split_conditions":[2.105714E-4,1.5603434E-10,3.6977828E-1,4.266497E-6,7.7078977E-10,7.2421673E-9,3.3096418E-1,-6.7197205E-3,2.7017042E-2,8.118915E-2,-5.7329286E-2,-6.382508E-2,-1.5517445E-1,-6.02772E-3,1.7554937E-1],"split_indices":[402,121,29,396,34,410,260,0,0,0,0,0,0,0,0],"split_type":[0,0,0,0,0,0,0,0,0,0,0,0,0,0,0],"sum_hessian":[9.66215E4,8.706571E4,9.555793E3,8.284785E4,4.217857E3,3.6910767E3,5.864716E3,6.6308914E4,1.6538941E4,3.9400012E3,2.7785568E2,2.7453643E3,9.457124E2,5.571761E3,2.929546E2],"tree_param":{"num_deleted":"0","num_feature":"418","num_nodes":"15","size_leaf_vector":"1"}},{"base_weights":[1.5976086E-4,-1.04140155E-2,9.733262E-1,3.015783E-2,-2.838554E-1,-1.6793807E0,1.1802559E0,-2.7494572E-4,4.5448136E-2,-6.773765E-2,-1.4501207E-2,1.4573114E-1,-1.745417E-1,2.9686436E-1,9.8929875E-2],"categories":[],"categories_nodes":[],"categories_segments":[],"categories_sizes":[],"default_left":[0,0,0,0,0,0,0,0,0,0,0,0,0,0,0],"id":55,"left_children":[1,3,5,7,9,11,13,-1,-1,-1,-1,-1,-1,-1,-1],"loss_changes":[9.917993E2,1.0578054E3,5.7066223E2,1.1593751E3,6.7301263E2,1.8157364E1,3.2545874E2,0E0,0E0,0E0,0E0,0E0,0E0,0E0,0E0],"parents":[2147483647,0,0,1,1,2,2,3,3,4,4,5,5,6,6],"right_children":[2,4,6,8,10,12,14,-1,-1,-1,-1,-1,-1,-1,-1],"split_conditions":[4.0916237E-1,4.6137336E-1,1.2158205E-12,6.728958E-11,1.6484153E-2,5.384646E-13,5.797393E-13,-2.7494572E-4,4.5448136E-2,-6.773765E-2,-1.4501207E-2,1.4573114E-1,-1.745417E-1,2.9686436E-1,9.8929875E-2],"split_indices":[150,310,11,144,83,387,364,0,0,0,0,0,0,0,0],"split_type":[0,0,0,0,0,0,0,0,0,0,0,0,0,0,0],"sum_hessian":[9.638236E4,9.534737E4,1.0349915E3,8.302886E4,1.2318512E4,7.437936E1,9.606121E2,7.7054125E4,5.974735E3,3.2117188E3,9.106793E3,1.0992063E0,7.328015E1,9.127162E1,8.693405E2],"tree_param":{"num_deleted":"0","num_feature":"418","num_nodes":"15","size_leaf_vector":"1"}},{"base_weights":[1.4198129E-4,2.1778192E-2,-4.6918088E-1,-1.0153783E-1,1.2601164E-1,-9.856994E-1,-1.3725828E-1,-1.7314846E-2,6.523193E-2,-6.579959E-4,5.575746E-2,-1.14722244E-1,-2.0164646E-2,-1.9761579E-1,-1.3945756E-3],"categories":[],"categories_nodes":[],"categories_segments":[],"categories_sizes":[],"default_left":[0,0,0,0,0,0,0,0,0,0,0,0,0,0,0],"id":56,"left_children":[1,3,5,7,9,11,13,-1,-1,-1,-1,-1,-1,-1,-1],"loss_changes":[9.7645557E2,1.1815641E3,7.264024E2,2.27327E3,2.8505864E3,2.097052E2,5.85248E2,0E0,0E0,0E0,0E0,0E0,0E0,0E0,0E0],"parents":[2147483647,0,0,1,1,2,2,3,3,4,4,5,5,6,6],"right_children":[2,4,6,8,10,12,14,-1,-1,-1,-1,-1,-1,-1,-1],"split_conditions":[1.518435E-9,4.3965095E-11,2.998903E-11,4.871916E-11,-5.587792E-5,5.4133475E-11,1.0167516E0,-1.7314846E-2,6.523193E-2,-6.579959E-4,5.575746E-2,-1.14722244E-1,-2.0164646E-2,-1.9761579E-1,-1.3945756E-3],"split_indices":[10,164,100,320,181,254,185,0,0,0,0,0,0,0,0],"split_type":[0,0,0,0,0,0,0,0,0,0,0,0,0,0,0],"sum_hessian":[9.6159125E4,9.1922375E4,4.236751E3,4.210684E4,4.9815535E4,1.6567087E3,2.5800425E3,3.8454707E4,3.6521313E3,3.810829E4,1.1707247E4,1.3733262E3,2.8338257E2,1.6119496E2,2.4188477E3],"tree_param":{"num_deleted":"0","num_feature":"418","num_nodes":"15","size_leaf_vector":"1"}},{"base_weights":[1.4964203E-4,5.8874354E-2,-1.7079921E-1,-2.5668094E-1,1.16771474E-1,1.1342602E0,-2.0082003E-1,-4.193891E-2,5.4042246E-2,1.9817485E-2,-1.6791154E-2,-1.20706536E-1,1.3630603E-1,4.658158E-2,-2.4631966E-2],"categories":[],"categories_nodes":[],"categories_segments":[],"categories_sizes":[],"default_left":[0,0,0,0,0,0,0,0,0,0,0,0,0,0,0],"id":57,"left_children":[1,3,5,7,9,11,13,-1,-1,-1,-1,-1,-1,-1,-1],"loss_changes":[9.6174615E2,1.3027797E3,9.5992883E2,1.4340195E3,1.3963293E3,2.9678992E2,7.2641815E2,0E0,0E0,0E0,0E0,0E0,0E0,0E0,0E0],"parents":[2147483647,0,0,1,1,2,2,3,3,4,4,5,5,6,6],"right_children":[2,4,6,8,10,12,14,-1,-1,-1,-1,-1,-1,-1,-1],"split_conditions":[3.570873E-1,2.433208E-12,1.3559332E-13,1.1772415E-11,1.026667E0,3.6274242E-13,-6.269748E-5,-4.193891E-2,5.4042246E-2,1.9817485E-2,-1.6791154E-2,-1.20706536E-1,1.3630603E-1,4.658158E-2,-2.4631966E-2],"split_indices":[377,409,168,299,185,322,286,0,0,0,0,0,0,0,0],"split_type":[0,0,0,0,0,0,0,0,0,0,0,0,0,0,0],"sum_hessian":[9.5799734E4,7.130541E4,2.4494328E4,1.1054097E4,6.025131E4,5.49956E2,2.3944371E4,9.18059E3,1.8735072E3,4.6854E4,1.3397309E4,4.857806E1,5.0137796E2,1.5292592E3,2.2415113E4],"tree_param":{"num_deleted":"0","num_feature":"418","num_nodes":"15","size_leaf_vector":"1"}},{"base_weights":[1.1004655E-4,4.323765E-1,-2.2740286E-2,-4.25649E-1,7.6480716E-1,-1.0394688E-1,1.255791E-1,-7.6485716E-2,5.9175905E-2,-2.7855799E-2,1.1064129E-1,-3.233022E-2,2.3740476E-3,2.773369E-2,-1.5806362E-2],"categories":[],"categories_nodes":[],"categories_segments":[],"categories_sizes":[],"default_left":[0,0,0,0,0,0,0,0,0,0,0,0,0,0,0],"id":58,"left_children":[1,3,5,7,9,11,13,-1,-1,-1,-1,-1,-1,-1,-1],"loss_changes":[9.424408E2,1.3667351E3,1.0915237E3,4.6234113E2,1.2310671E3,1.640238E3,1.3801959E3,0E0,0E0,0E0,0E0,0E0,0E0,0E0,0E0],"parents":[2147483647,0,0,1,1,2,2,3,3,4,4,5,5,6,6],"right_children":[2,4,6,8,10,12,14,-1,-1,-1,-1,-1,-1,-1,-1],"split_conditions":[3.5E-9,4.0240053E-2,-6.2040874E-7,1.19221326E-11,1.4648445E-5,1.4946983E-11,1.0317964E-11,-7.6485716E-2,5.9175905E-2,-2.7855799E-2,1.1064129E-1,-3.233022E-2,2.3740476E-3,2.773369E-2,-1.5806362E-2],"split_indices":[226,216,374,101,268,143,365,0,0,0,0,0,0,0,0],"split_type":[0,0,0,0,0,0,0,0,0,0,0,0,0,0,0],"sum_hessian":[9.5411555E4,4.7894873E3,9.062206E4,1.3373689E3,3.4521184E3,5.8560055E4,3.206201E4,1.00315955E3,3.3420938E2,8.515172E2,2.600601E3,2.154543E4,3.7014625E4,2.0886889E4,1.1175121E4],"tree_param":{"num_deleted":"0","num_feature":"418","num_nodes":"15","size_leaf_vector":"1"}},{"base_weights":[6.7757406E-5,-1.0710107E-2,9.1462976E-1,4.7886144E-2,-1.9958064E-1,-9.952497E-1,1.0480815E0,9.389639E-3,-3.0069476E-2,1.0730135E-1,-2.4210904E-2,-1.0587352E-1,5.3263236E-2,1.06146954E-1,-1.15546025E-1],"categories":[],"categories_nodes":[],"categories_segments":[],"categories_sizes":[],"default_left":[0,0,0,0,0,0,0,0,0,0,0,0,0,0,0],"id":59,"left_children":[1,3,5,7,9,11,13,-1,-1,-1,-1,-1,-1,-1,-1],"loss_changes":[9.3783466E2,1.0407113E3,2.8349365E2,1.1511006E3,1.2053456E3,7.6340637E0,3.1797974E1,0E0,0E0,0E0,0E0,0E0,0E0,0E0,0E0],"parents":[2147483647,0,0,1,1,2,2,3,3,4,4,5,5,6,6],"right_children":[2,4,6,8,10,12,14,-1,-1,-1,-1,-1,-1,-1,-1],"split_conditions":[1.0383077E0,5.8236516E-1,9.126966E-12,1.0284288E0,1.3559332E-13,1.8267823E-11,4.28E2,9.389639E-3,-3.0069476E-2,1.0730135E-1,-2.4210904E-2,-1.0587352E-1,5.3263236E-2,1.06146954E-1,-1.15546025E-1],"split_indices":[163,311,188,185,168,276,197,0,0,0,0,0,0,0,0],"split_type":[0,0,0,0,0,0,0,0,0,0,0,0,0,0,0],"sum_hessian":[9.514178E4,9.40346E4,1.107184E3,7.176925E4,2.226535E4,7.1889435E1,1.0352946E3,6.3401438E4,8.367816E3,7.192327E2,2.1546115E4,6.9316315E1,2.573123E0,1.0295576E3,5.736947E0],"tree_param":{"num_deleted":"0","num_feature":"418","num_nodes":"15","size_leaf_vector":"1"}},{"base_weights":[1.0903856E-4,4.0118736E-1,-2.3457373E-2,-4.3812037E-1,6.6733134E-1,-2.2234066E-1,4.131418E-2,-8.376001E-2,5.6804694E-2,-8.1982605E-2,7.818732E-2,-3.2729227E-2,2.8034577E-2,2.1480275E-2,-7.5325035E-3],"categories":[],"categories_nodes":[],"categories_segments":[],"categories_sizes":[],"default_left":[0,0,0,0,0,0,0,0,0,0,0,0,0,0,0],"id":60,"left_children":[1,3,5,7,9,11,13,-1,-1,-1,-1,-1,-1,-1,-1],"loss_changes":[8.971958E2,1.1770044E3,1.1549259E3,5.1048822E2,6.820032E2,1.1620913E3,1.3685371E3,0E0,0E0,0E0,0E0,0E0,0E0,0E0,0E0],"parents":[2147483647,0,0,1,1,2,2,3,3,4,4,5,5,6,6],"right_children":[2,4,6,8,10,12,14,-1,-1,-1,-1,-1,-1,-1,-1],"split_conditions":[1.754097E-3,4.8661796E-13,2.0579563E-2,2.6856854E-12,1.0225433E-12,8.233635E-1,5.5893045E-2,-8.376001E-2,5.6804694E-2,-8.1982605E-2,7.818732E-2,-3.2729227E-2,2.8034577E-2,2.1480275E-2,-7.5325035E-3],"split_indices":[63,102,40,36,365,371,62,0,0,0,0,0,0,0,0],"split_type":[0,0,0,0,0,0,0,0,0,0,0,0,0,0,0],"sum_hessian":[9.491951E4,5.266837E3,8.965267E4,1.2678662E3,3.9989705E3,2.2024193E4,6.762848E4,9.0766327E2,3.60203E2,2.8553687E2,3.7134336E3,1.822045E4,3.8037432E3,2.7188137E4,4.044034E4],"tree_param":{"num_deleted":"0","num_feature":"418","num_nodes":"15","size_leaf_vector":"1"}},{"base_weights":[1.1831735E-4,3.8081682E-1,-2.39931E-2,-4.020875E-1,6.863967E-1,-3.2936257E-1,2.5014438E-2,4.129301E-2,-7.4710116E-2,2.0987515E-1,4.151537E-2,-3.8219992E-2,1.299573E-1,7.500834E-2,-6.372511E-4],"categories":[],"categories_nodes":[],"categories_segments":[],"categories_sizes":[],"default_left":[0,0,0,0,0,0,0,0,0,0,0,0,0,0,0],"id":61,"left_children":[1,3,5,7,9,11,13,-1,-1,-1,-1,-1,-1,-1,-1],"loss_changes":[8.683874E2,1.348353E3,1.3314683E3,4.4530856E2,1.5519081E3,1.0594689E3,1.7447557E3,0E0,0E0,0E0,0E0,0E0,0E0,0E0,0E0],"parents":[2147483647,0,0,1,1,2,2,3,3,4,4,5,5,6,6],"right_children":[2,4,6,8,10,12,14,-1,-1,-1,-1,-1,-1,-1,-1],"split_conditions":[6.1616624E-13,1.0017836E-11,2.0677496E-12,4.6726666E-2,6.007931E-12,1.5441372E-4,1.98242E-12,4.129301E-2,-7.4710116E-2,2.0987515E-1,4.151537E-2,-3.8219992E-2,1.299573E-1,7.500834E-2,-6.372511E-4],"split_indices":[406,233,408,283,256,396,255,0,0,0,0,0,0,0,0],"split_type":[0,0,0,0,0,0,0,0,0,0,0,0,0,0,0],"sum_hessian":[9.460203E4,5.6338345E3,8.8968195E4,1.5815481E3,4.0522866E3,1.2302807E4,7.666539E4,4.7032156E2,1.1112266E3,6.51775E2,3.4005115E3,1.1917022E4,3.85784E2,3.1800583E3,7.348533E4],"tree_param":{"num_deleted":"0","num_feature":"418","num_nodes":"15","size_leaf_vector":"1"}},{"base_weights":[3.7734967E-6,3.2454696E-2,-2.931119E-1,-3.7929972E-4,6.6246617E-1,1.4774944E-1,-6.2262934E-1,-2.6216041E-3,6.9171146E-2,-9.315291E-3,8.964633E-2,-1.4104722E-3,1.2402536E-1,-9.666688E-2,-3.4334663E-2],"categories":[],"categories_nodes":[],"categories_segments":[],"categories_sizes":[],"default_left":[0,0,0,0,0,0,0,0,0,0,0,0,0,0,0],"id":62,"left_children":[1,3,5,7,9,11,13,-1,-1,-1,-1,-1,-1,-1,-1],"loss_changes":[8.979702E2,1.758196E3,1.3670759E3,1.4445841E3,7.445071E2,7.118721E2,5.170945E2,0E0,0E0,0E0,0E0,0E0,0E0,0E0,0E0],"parents":[2147483647,0,0,1,1,2,2,3,3,4,4,5,5,6,6],"right_children":[2,4,6,8,10,12,14,-1,-1,-1,-1,-1,-1,-1,-1],"split_conditions":[2.105714E-4,7.635716E-11,6.80924E-2,2.0700419E-10,2.5866547E-1,2.2437455E-6,6.2236896E-11,-2.6216041E-3,6.9171146E-2,-9.315291E-3,8.964633E-2,-1.4104722E-3,1.2402536E-1,-9.666688E-2,-3.4334663E-2],"split_indices":[402,144,213,231,293,234,35,0,0,0,0,0,0,0,0],"split_type":[0,0,0,0,0,0,0,0,0,0,0,0,0,0,0],"sum_hessian":[9.440319E4,8.499433E4,9.408858E3,8.078509E4,4.2092373E3,4.0247275E3,5.384131E3,7.787873E4,2.9063628E3,9.954269E2,3.2138105E3,3.506263E3,5.184647E2,2.411285E3,2.972846E3],"tree_param":{"num_deleted":"0","num_feature":"418","num_nodes":"15","size_leaf_vector":"1"}},{"base_weights":[1.1023874E-4,-9.575454E-3,9.064295E-1,-2.2772321E-1,3.3004865E-2,-9.6998125E-1,1.0390431E0,-1.0698173E-1,-1.903833E-2,4.171505E-2,5.12503E-4,6.787371E-2,-1.0240958E-1,1.0540636E-1,-1.008955E-1],"categories":[],"categories_nodes":[],"categories_segments":[],"categories_sizes":[],"default_left":[0,0,0,0,0,0,0,0,0,0,0,0,0,0,0],"id":63,"left_children":[1,3,5,7,9,11,13,-1,-1,-1,-1,-1,-1,-1,-1],"loss_changes":[8.258369E2,8.646279E2,2.4853967E2,4.7779248E2,8.3410095E2,6.5996246E0,2.9658813E1,0E0,0E0,0E0,0E0,0E0,0E0,0E0,0E0],"parents":[2147483647,0,0,1,1,2,2,3,3,4,4,5,5,6,6],"right_children":[2,4,6,8,10,12,14,-1,-1,-1,-1,-1,-1,-1,-1],"split_conditions":[1.0383077E0,-4.2858475E-1,8.544265E-12,5.521938E-11,4.1867784E-6,-6.763348E-1,4.1800194E1,-1.0698173E-1,-1.903833E-2,4.171505E-2,5.12503E-4,6.787371E-2,-1.0240958E-1,1.0540636E-1,-1.008955E-1],"split_indices":[163,244,189,265,226,310,284,0,0,0,0,0,0,0,0],"split_type":[0,0,0,0,0,0,0,0,0,0,0,0,0,0,0],"sum_hessian":[9.407478E4,9.308103E4,9.937529E2,1.5200645E4,7.788038E4,6.517978E1,9.285731E2,6.4423035E2,1.4556414E4,5.268857E3,7.261153E4,1.7045393E0,6.3475243E1,9.222942E2,6.27895E0],"tree_param":{"num_deleted":"0","num_feature":"418","num_nodes":"15","size_leaf_vector":"1"}},{"base_weights":[1.2079809E-4,-9.615225E-3,9.0109456E-1,1.4306794E-2,-4.3271068E-1,-1.5575316E0,1.0901768E0,-4.0948982E-3,2.3721773E-2,-8.3734505E-2,7.2048465E-3,1.3226669E-1,-1.6228712E-1,2.5388378E-1,9.184882E-2],"categories":[],"categories_nodes":[],"categories_segments":[],"categories_sizes":[],"default_left":[0,0,0,0,0,0,0,0,0,0,0,0,0,0,0],"id":64,"left_children":[1,3,5,7,9,11,13,-1,-1,-1,-1,-1,-1,-1,-1],"loss_changes":[8.2396594E2,9.4056067E2,4.6853003E2,1.0833763E3,1.0157729E3,1.5719727E1,2.2973938E2,0E0,0E0,0E0,0E0,0E0,0E0,0E0,0E0],"parents":[2147483647,0,0,1,1,2,2,3,3,4,4,5,5,6,6],"right_children":[2,4,6,8,10,12,14,-1,-1,-1,-1,-1,-1,-1,-1],"split_conditions":[4.0916237E-1,2.3897174E-1,1.2158205E-12,2.8436328E-11,3.9134988E-1,5.384646E-13,5.797393E-13,-4.0948982E-3,2.3721773E-2,-8.3734505E-2,7.2048465E-3,1.3226669E-1,-1.6228712E-1,2.5388378E-1,9.184882E-2],"split_indices":[150,392,11,145,293,387,364,0,0,0,0,0,0,0,0],"split_type":[0,0,0,0,0,0,0,0,0,0,0,0,0,0,0],"sum_hessian":[9.3930445E4,9.292726E4,1.003193E3,8.7955195E4,4.9720625E3,7.112474E1,9.3206824E2,7.0484195E4,1.7471E4,2.7593792E3,2.2126833E3,1.1508704E0,6.997387E1,9.729899E1,8.347692E2],"tree_param":{"num_deleted":"0","num_feature":"418","num_nodes":"15","size_leaf_vector":"1"}},{"base_weights":[9.5271884E-5,-5.344966E-1,1.6068751E-2,-6.6871804E-1,1.6938456E0,4.921918E-1,-1.3902591E-2,-5.5976033E-2,-2.5569636E-1,3.2067117E-1,-1.00367725E-1,-3.808467E-2,6.2046554E-2,-7.5437846E-3,2.4897661E-2],"categories":[],"categories_nodes":[],"categories_segments":[],"categories_sizes":[],"default_left":[0,0,0,0,0,0,0,0,0,0,0,0,0,0,0],"id":65,"left_children":[1,3,5,7,9,11,13,-1,-1,-1,-1,-1,-1,-1,-1],"loss_changes":[8.003191E2,8.1440497E2,1.2986211E3,5.263673E2,6.3480237E2,6.0377185E2,1.3849481E3,0E0,0E0,0E0,0E0,0E0,0E0,0E0,0E0],"parents":[2147483647,0,0,1,1,2,2,3,3,4,4,5,5,6,6],"right_children":[2,4,6,8,10,12,14,-1,-1,-1,-1,-1,-1,-1,-1],"split_conditions":[1.60619E-13,5.710483E-2,2.0885952E-3,9.281863E-12,2.1547781E-13,5.0108924E-11,-2.4105368E-5,-5.5976033E-2,-2.5569636E-1,3.2067117E-1,-1.00367725E-1,-3.808467E-2,6.2046554E-2,-7.5437846E-3,2.4897661E-2],"split_indices":[388,415,63,14,146,98,379,0,0,0,0,0,0,0,0],"split_type":[0,0,0,0,0,0,0,0,0,0,0,0,0,0,0],"sum_hessian":[9.371995E4,2.7181428E3,9.1001805E4,2.5643804E3,1.5376242E2,5.3882915E3,8.5613516E4,2.4257058E3,1.3867444E2,9.8391975E1,5.537044E1,6.900182E2,4.698273E3,6.9374836E4,1.6238679E4],"tree_param":{"num_deleted":"0","num_feature":"418","num_nodes":"15","size_leaf_vector":"1"}},{"base_weights":[6.7702276E-5,-8.735208E-2,9.7531974E-2,-5.6469712E-2,-8.583466E-1,7.219113E-1,1.0870744E-3,-9.739545E-3,5.990541E-2,-3.7447847E-2,-1.401315E-1,8.5703135E-2,-1.463147E-2,7.1589135E-2,-6.8873004E-3],"categories":[],"categories_nodes":[],"categories_segments":[],"categories_sizes":[],"default_left":[0,0,0,0,0,0,0,0,0,0,0,0,0,0,0],"id":66,"left_children":[1,3,5,7,9,11,13,-1,-1,-1,-1,-1,-1,-1,-1],"loss_changes":[7.976663E2,1.1750492E3,2.6656553E3,1.273123E3,4.9882007E2,6.9495557E2,1.9175885E3,0E0,0E0,0E0,0E0,0E0,0E0,0E0,0E0],"parents":[2147483647,0,0,1,1,2,2,3,3,4,4,5,5,6,6],"right_children":[2,4,6,8,10,12,14,-1,-1,-1,-1,-1,-1,-1,-1],"split_conditions":[1.6487518E-11,3.186811E-11,2.5259606E-12,3.8792303E-11,7.010581E-2,3.1041423E-11,2.8446893E-5,-9.739545E-3,5.990541E-2,-3.7447847E-2,-1.401315E-1,8.5703135E-2,-1.463147E-2,7.1589135E-2,-6.8873004E-3],"split_indices":[211,210,387,232,369,212,226,0,0,0,0,0,0,0,0],"split_type":[0,0,0,0,0,0,0,0,0,0,0,0,0,0,0],"sum_hessian":[9.361745E4,4.9351832E4,4.426562E4,4.7452195E4,1.8996359E3,5.9217876E3,3.8343832E4,4.4664547E4,2.787651E3,1.0053788E3,8.942571E2,5.124315E3,7.974726E2,3.4174487E3,3.4926383E4],"tree_param":{"num_deleted":"0","num_feature":"418","num_nodes":"15","size_leaf_vector":"1"}},{"base_weights":[1.6840051E-4,3.5496286E-1,-2.2607157E-2,-3.397616E-1,6.348325E-1,-4.0955374E-1,1.1785258E-2,-5.964608E-2,7.9666816E-2,1.0136012E-1,-1.4670479E-2,-5.6291737E-2,5.02187E-2,6.570513E-2,-2.0017237E-3],"categories":[],"categories_nodes":[],"categories_segments":[],"categories_sizes":[],"default_left":[0,0,0,0,0,0,0,0,0,0,0,0,0,0,0],"id":67,"left_children":[1,3,5,7,9,11,13,-1,-1,-1,-1,-1,-1,-1,-1],"loss_changes":[7.538259E2,1.0943362E3,1.166595E3,4.7207196E2,1.1876855E3,1.0008146E3,1.6520859E3,0E0,0E0,0E0,0E0,0E0,0E0,0E0,0E0],"parents":[2147483647,0,0,1,1,2,2,3,3,4,4,5,5,6,6],"right_children":[2,4,6,8,10,12,14,-1,-1,-1,-1,-1,-1,-1,-1],"split_conditions":[6.1616624E-13,1.0474477E-11,4.8133992E-12,8.7157086E-2,6.732599E-11,1.0178678E-11,2.0745946E-12,-5.964608E-2,7.9666816E-2,1.0136012E-1,-1.4670479E-2,-5.6291737E-2,5.02187E-2,6.570513E-2,-2.0017237E-3],"split_indices":[406,233,209,17,366,254,255,0,0,0,0,0,0,0,0],"split_type":[0,0,0,0,0,0,0,0,0,0,0,0,0,0,0],"sum_hessian":[9.328589E4,5.6262573E3,8.765963E4,1.6156045E3,4.0106526E3,7.154456E3,8.050518E4,1.3182994E3,2.9730515E2,2.7012207E3,1.309432E3,6.1246187E3,1.0298375E3,3.7804746E3,7.67247E4],"tree_param":{"num_deleted":"0","num_feature":"418","num_nodes":"15","size_leaf_vector":"1"}},{"base_weights":[4.1190524E-5,-1.3850749E-1,5.856572E-2,-2.376306E-1,2.7425614E-1,7.5296625E-2,-7.4647176E-1,-2.9254753E-2,3.3770695E-2,1.8553043E-3,6.928291E-2,2.94641E-3,4.8900854E-2,4.538121E-2,-8.858614E-2],"categories":[],"categories_nodes":[],"categories_segments":[],"categories_sizes":[],"default_left":[0,0,0,0,0,0,0,0,0,0,0,0,0,0,0],"id":68,"left_children":[1,3,5,7,9,11,13,-1,-1,-1,-1,-1,-1,-1,-1],"loss_changes":[7.5521014E2,1.1317207E3,8.819936E2,7.047993E2,5.732894E2,1.216303E3,2.234591E2,0E0,0E0,0E0,0E0,0E0,0E0,0E0,0E0],"parents":[2147483647,0,0,1,1,2,2,3,3,4,4,5,5,6,6],"right_children":[2,4,6,8,10,12,14,-1,-1,-1,-1,-1,-1,-1,-1],"split_conditions":[-1.6187333E-1,-4.516248E-5,1.0476558E1,1.1773424E-10,3.0449362E-11,1.1213886E-10,-1.8442053E-5,-2.9254753E-2,3.3770695E-2,1.8553043E-3,6.928291E-2,2.94641E-3,4.8900854E-2,4.538121E-2,-8.858614E-2],"split_indices":[354,247,267,210,120,121,396,0,0,0,0,0,0,0,0],"split_type":[0,0,0,0,0,0,0,0,0,0,0,0,0,0,0],"sum_hessian":[9.3136125E4,2.7658086E4,6.547804E4,2.2302643E4,5.3554434E3,6.4145816E4,1.3322207E3,2.0359762E4,1.9428812E3,3.325168E3,2.0302758E3,5.774922E4,6.396599E3,1.383794E2,1.1938413E3],"tree_param":{"num_deleted":"0","num_feature":"418","num_nodes":"15","size_leaf_vector":"1"}},{"base_weights":[4.065813E-5,1.9972853E-2,-4.286228E-1,-7.4095E-3,4.201852E-1,-1.3470772E-1,-9.1363513E-1,-2.8584248E-3,7.443913E-2,-3.3785045E-2,7.8428306E-2,-8.122185E-2,1.7554346E-2,-1.0761624E-1,1.7967818E-2],"categories":[],"categories_nodes":[],"categories_segments":[],"categories_sizes":[],"default_left":[0,0,0,0,0,0,0,0,0,0,0,0,0,0,0],"id":69,"left_children":[1,3,5,7,9,11,13,-1,-1,-1,-1,-1,-1,-1,-1],"loss_changes":[7.9361005E2,9.726568E2,5.881924E2,1.3224777E3,1.5689817E3,5.405474E2,2.768766E2,0E0,0E0,0E0,0E0,0E0,0E0,0E0,0E0],"parents":[2147483647,0,0,1,1,2,2,3,3,4,4,5,5,6,6],"right_children":[2,4,6,8,10,12,14,-1,-1,-1,-1,-1,-1,-1,-1],"split_conditions":[1.518435E-9,7.1538706E-11,3.9753973E0,8.449007E-11,2.0446552E-2,1.5587375E-11,1.0278208E0,-2.8584248E-3,7.443913E-2,-3.3785045E-2,7.8428306E-2,-8.122185E-2,1.7554346E-2,-1.0761624E-1,1.7967818E-2],"split_indices":[10,144,206,12,305,144,31,0,0,0,0,0,0,0,0],"split_type":[0,0,0,0,0,0,0,0,0,0,0,0,0,0,0],"sum_hessian":[9.288086E4,8.875484E4,4.1260107E3,8.307207E4,5.682773E3,2.5699263E3,1.5560848E3,8.079734E4,2.274725E3,1.8439087E3,3.8388645E3,8.06693E2,1.7632332E3,1.3547145E3,2.0137029E2],"tree_param":{"num_deleted":"0","num_feature":"418","num_nodes":"15","size_leaf_vector":"1"}},{"base_weights":[1.2403112E-4,1.6772924E-2,-4.8458093E-1,-1.2536362E-2,3.7933677E-1,-6.498189E-1,4.8852482E-1,-3.0538565E-3,6.397366E-2,-5.5146974E-2,5.703522E-2,-7.659191E-2,9.368648E-2,8.12111E-2,-2.9699463E-2],"categories":[],"categories_nodes":[],"categories_segments":[],"categories_sizes":[],"default_left":[0,0,0,0,0,0,0,0,0,0,0,0,0,0,0],"id":70,"left_children":[1,3,5,7,9,11,13,-1,-1,-1,-1,-1,-1,-1,-1],"loss_changes":[7.472677E2,9.513455E2,4.9476935E2,9.7264465E2,1.1908328E3,4.8504077E2,1.13844925E2,0E0,0E0,0E0,0E0,0E0,0E0,0E0,0E0],"parents":[2147483647,0,0,1,1,2,2,3,3,4,4,5,5,6,6],"right_children":[2,4,6,8,10,12,14,-1,-1,-1,-1,-1,-1,-1,-1],"split_conditions":[1.6658759E-9,1.1893139E-10,4.5987488E-7,2.3272331E-10,2.0703235E0,2.8177357E-1,1.9691576E-8,-3.0538565E-3,6.397366E-2,-5.5146974E-2,5.703522E-2,-7.659191E-2,9.368648E-2,8.12111E-2,-2.9699463E-2],"split_indices":[406,121,212,231,206,40,123,0,0,0,0,0,0,0,0],"split_type":[0,0,0,0,0,0,0,0,0,0,0,0,0,0,0],"sum_hessian":[9.259849E4,8.952442E4,3.074065E3,8.282954E4,6.6948887E3,2.6281287E3,4.4593643E2,8.0605836E4,2.2237026E3,1.1396342E3,5.5552544E3,2.449418E3,1.7871059E2,3.1580865E2,1.3012778E2],"tree_param":{"num_deleted":"0","num_feature":"418","num_nodes":"15","size_leaf_vector":"1"}},{"base_weights":[1.7518904E-4,2.7296746E-1,-2.7988005E-2,-2.9273012E-1,4.918544E-1,-1.2951227E-1,1.03776656E-1,-4.4170514E-2,1.371638E-1,9.150461E-2,2.7364979E-2,-3.463171E-2,-3.6132048E-4,3.8510904E-2,-1.0424226E-2],"categories":[],"categories_nodes":[],"categories_segments":[],"categories_sizes":[],"default_left":[0,0,0,0,0,0,0,0,0,0,0,0,0,0,0],"id":71,"left_children":[1,3,5,7,9,11,13,-1,-1,-1,-1,-1,-1,-1,-1],"loss_changes":[7.0947534E2,1.0702017E3,1.1197656E3,5.985475E2,5.751559E2,1.2904849E3,2.1318967E3,0E0,0E0,0E0,0E0,0E0,0E0,0E0,0E0],"parents":[2147483647,0,0,1,1,2,2,3,3,4,4,5,5,6,6],"right_children":[2,4,6,8,10,12,14,-1,-1,-1,-1,-1,-1,-1,-1],"split_conditions":[1.0158765E0,1.0122283E0,1.0258718E0,3.051327E-7,-9.385755E-5,2.6103637E-5,1.026915E0,-4.4170514E-2,1.371638E-1,9.150461E-2,2.7364979E-2,-3.463171E-2,-3.6132048E-4,3.8510904E-2,-1.0424226E-2],"split_indices":[185,361,31,168,313,358,53,0,0,0,0,0,0,0,0],"split_type":[0,0,0,0,0,0,0,0,0,0,0,0,0,0,0],"sum_hessian":[9.234512E4,8.640775E3,8.3704336E4,2.4105486E3,6.2302266E3,4.7277324E4,3.642701E4,2.2131843E3,1.973641E2,2.1184521E3,4.1117744E3,1.736762E4,2.9909707E4,1.5484439E4,2.0942574E4],"tree_param":{"num_deleted":"0","num_feature":"418","num_nodes":"15","size_leaf_vector":"1"}},{"base_weights":[1.9120416E-4,7.6438315E-2,-1.00945726E-1,1.0539617E-3,3.72858E-1,-2.8476894E-1,6.9934584E-2,-6.2982203E-3,6.793552E-2,1.0694224E-2,1.1107551E-1,-3.6365457E-2,6.1220862E-2,6.0306873E-2,-3.5343969E-3],"categories":[],"categories_nodes":[],"categories_segments":[],"categories_sizes":[],"default_left":[0,0,0,0,0,0,0,0,0,0,0,0,0,0,0],"id":72,"left_children":[1,3,5,7,9,11,13,-1,-1,-1,-1,-1,-1,-1,-1],"loss_changes":[7.10012E2,1.1730482E3,1.2431993E3,1.8179803E3,2.0883818E3,1.3493461E3,1.1512714E3,0E0,0E0,0E0,0E0,0E0,0E0,0E0,0E0],"parents":[2147483647,0,0,1,1,2,2,3,3,4,4,5,5,6,6],"right_children":[2,4,6,8,10,12,14,-1,-1,-1,-1,-1,-1,-1,-1],"split_conditions":[6.793724E-10,5.0173817E-6,6.9211303E-10,7.020697E-10,1.28E2,1.0318925E0,1.0179577E0,-6.2982203E-3,6.793552E-2,1.0694224E-2,1.1107551E-1,-3.6365457E-2,6.1220862E-2,6.0306873E-2,-3.5343969E-3],"split_indices":[23,396,133,353,131,405,97,0,0,0,0,0,0,0,0],"split_type":[0,0,0,0,0,0,0,0,0,0,0,0,0,0,0],"sum_hessian":[9.207105E4,5.2495184E4,3.9575867E4,4.185243E4,1.0642752E4,1.9065562E4,2.0510303E4,3.824295E4,3.609483E3,7.824268E3,2.8184841E3,1.752491E4,1.5406515E3,3.3815073E3,1.7128795E4],"tree_param":{"num_deleted":"0","num_feature":"418","num_nodes":"15","size_leaf_vector":"1"}},{"base_weights":[2.1526364E-4,-1.2711288E-1,5.9894826E-2,-3.4705296E-1,4.3633573E-2,1.1935304E-1,-4.25041E-1,5.705856E-2,-4.450817E-2,3.9031263E-2,-1.9783273E-2,9.711852E-3,1.4372963E-1,-7.6570556E-2,-6.947089E-3],"categories":[],"categories_nodes":[],"categories_segments":[],"categories_sizes":[],"default_left":[0,0,0,0,0,0,0,0,0,0,0,0,0,0,0],"id":73,"left_children":[1,3,5,7,9,11,13,-1,-1,-1,-1,-1,-1,-1,-1],"loss_changes":[6.979724E2,1.1008203E3,1.8032728E3,1.1526621E3,1.3815358E3,1.6323657E3,8.273511E2,0E0,0E0,0E0,0E0,0E0,0E0,0E0,0E0],"parents":[2147483647,0,0,1,1,2,2,3,3,4,4,5,5,6,6],"right_children":[2,4,6,8,10,12,14,-1,-1,-1,-1,-1,-1,-1,-1],"split_conditions":[3.31893E-2,3.330188E-5,7.6896733E-1,1.0145206E0,7.498574E-12,6.714163E-1,3.582274E-11,5.705856E-2,-4.450817E-2,3.9031263E-2,-1.9783273E-2,9.711852E-3,1.4372963E-1,-7.6570556E-2,-6.947089E-3],"split_indices":[216,358,403,317,58,283,321,0,0,0,0,0,0,0,0],"split_type":[0,0,0,0,0,0,0,0,0,0,0,0,0,0,0],"sum_hessian":[9.1849914E4,2.9311602E4,6.2538316E4,1.2809951E4,1.650165E4,5.570861E4,6.8297056E3,1.2359071E3,1.1574044E4,6.77459E3,9.727061E3,5.4785418E4,9.2319025E2,3.4873718E3,3.3423337E3],"tree_param":{"num_deleted":"0","num_feature":"418","num_nodes":"15","size_leaf_vector":"1"}},{"base_weights":[1.4261526E-4,1.5135371E-2,-4.8432955E-1,6.81E-3,1.4186754E0,-7.547326E-1,2.6389328E-1,-1.808832E-3,3.821596E-2,-1.0802462E-1,2.3230024E-1,2.6074266E-2,-1.0033863E-1,-2.3899893E-1,3.6788087E-2],"categories":[],"categories_nodes":[],"categories_segments":[],"categories_sizes":[],"default_left":[0,0,0,0,0,0,0,0,0,0,0,0,0,0,0],"id":74,"left_children":[1,3,5,7,9,11,13,-1,-1,-1,-1,-1,-1,-1,-1],"loss_changes":[6.648721E2,1.037471E3,5.5611224E2,8.248931E2,1.1856488E3,5.099447E2,2.0237473E2,0E0,0E0,0E0,0E0,0E0,0E0,0E0,0E0],"parents":[2147483647,0,0,1,1,2,2,3,3,4,4,5,5,6,6],"right_children":[2,4,6,8,10,12,14,-1,-1,-1,-1,-1,-1,-1,-1],"split_conditions":[4.9189874E-4,1.3357325E0,1.0257223E0,7.1538706E-11,6.202683E-12,2.7681392E-5,6.582156E-12,-1.808832E-3,3.821596E-2,-1.0802462E-1,2.3230024E-1,2.6074266E-2,-1.0033863E-1,-2.3899893E-1,3.6788087E-2],"split_indices":[270,205,273,144,189,103,121,0,0,0,0,0,0,0,0],"split_type":[0,0,0,0,0,0,0,0,0,0,0,0,0,0,0],"sum_hessian":[9.1533125E4,8.878645E4,2.7466682E3,8.826391E4,5.225497E2,2.0175349E3,7.2913324E2,8.277414E4,5.489762E3,1.388026E2,3.8374707E2,3.9683868E2,1.6206963E3,2.6663622E1,7.024696E2],"tree_param":{"num_deleted":"0","num_feature":"418","num_nodes":"15","size_leaf_vector":"1"}},{"base_weights":[1.2514976E-4,6.454573E-1,-1.0981778E-2,-7.935417E-1,8.5676867E-1,2.5737084E-2,-2.3107862E-1,-1.1760652E-1,3.745542E-2,-4.0492143E-2,1.0584702E-1,-5.130967E-3,2.0567792E-2,-4.5938816E-2,1.3609397E-2],"categories":[],"categories_nodes":[],"categories_segments":[],"categories_sizes":[],"default_left":[0,0,0,0,0,0,0,0,0,0,0,0,0,0,0],"id":75,"left_children":[1,3,5,7,9,11,13,-1,-1,-1,-1,-1,-1,-1,-1],"loss_changes":[6.553406E2,4.7108563E2,7.2641583E2,8.918056E1,3.4382922E2,1.0679832E3,1.0773809E3,0E0,0E0,0E0,0E0,0E0,0E0,0E0,0E0],"parents":[2147483647,0,0,1,1,2,2,3,3,4,4,5,5,6,6],"right_children":[2,4,6,8,10,12,14,-1,-1,-1,-1,-1,-1,-1,-1],"split_conditions":[-2.1913758E-5,2.2571897E-12,1.0279531E0,1.1046535E-5,1.4221447E-5,1.0259215E0,2.5254117E-11,-1.1760652E-1,3.745542E-2,-4.0492143E-2,1.0584702E-1,-5.130967E-3,2.0567792E-2,-4.5938816E-2,1.3609397E-2],"split_indices":[226,388,185,402,268,31,297,0,0,0,0,0,0,0,0],"split_type":[0,0,0,0,0,0,0,0,0,0,0,0,0,0,0],"sum_hessian":[9.1428234E4,1.5459962E3,8.9882234E4,1.9760178E2,1.3483944E3,7.703186E4,1.2850379E4,1.4885011E2,4.8751667E1,1.857125E2,1.1626819E3,5.3937645E4,2.3094213E4,7.9233525E3,4.9270264E3],"tree_param":{"num_deleted":"0","num_feature":"418","num_nodes":"15","size_leaf_vector":"1"}},{"base_weights":[8.0921855E-5,-7.82644E-3,8.9009166E-1,4.9221568E-2,-1.5131313E-1,-9.579268E-1,1.0224843E0,-2.805821E-2,9.12993E-3,1.0312741E-1,-1.8509572E-2,-1.0350156E-1,5.8704823E-2,1.0371508E-1,-1.306868E-1],"categories":[],"categories_nodes":[],"categories_segments":[],"categories_sizes":[],"default_left":[0,0,0,0,0,0,0,0,0,0,0,0,0,0,0],"id":76,"left_children":[1,3,5,7,9,11,13,-1,-1,-1,-1,-1,-1,-1,-1],"loss_changes":[6.4261096E2,7.408602E2,1.9771661E2,8.987258E2,1.0288257E3,7.071419E0,2.7006592E1,0E0,0E0,0E0,0E0,0E0,0E0,0E0,0E0],"parents":[2147483647,0,0,1,1,2,2,3,3,4,4,5,5,6,6],"right_children":[2,4,6,8,10,12,14,-1,-1,-1,-1,-1,-1,-1,-1],"split_conditions":[1.0383077E0,4.0933615E-1,9.126966E-12,2.048325E-12,1.3559332E-13,1.8267823E-11,4.28E2,-2.805821E-2,9.12993E-3,1.0312741E-1,-1.8509572E-2,-1.0350156E-1,5.8704823E-2,1.0371508E-1,-1.306868E-1],"split_indices":[163,311,188,409,168,276,153,0,0,0,0,0,0,0,0],"split_type":[0,0,0,0,0,0,0,0,0,0,0,0,0,0,0],"sum_hessian":[9.130863E4,9.050552E4,8.031113E2,6.4759023E4,2.5746494E4,5.327203E1,7.498393E2,7.3267295E3,5.7432297E4,7.1424493E2,2.503225E4,5.1054657E1,2.217371E0,7.4569885E2,4.1404366E0],"tree_param":{"num_deleted":"0","num_feature":"418","num_nodes":"15","size_leaf_vector":"1"}},{"base_weights":[1.0051108E-4,4.0306054E-2,-1.6997863E-1,1.2828341E-2,8.3131975E-1,-6.8569815E-1,-1.828519E-2,3.5834615E-3,-7.6933645E-2,1.2998056E-1,-5.111195E-4,-7.672439E-2,1.0508012E-1,1.0588386E-1,-9.966461E-3],"categories":[],"categories_nodes":[],"categories_segments":[],"categories_sizes":[],"default_left":[0,0,0,0,0,0,0,0,0,0,0,0,0,0,0],"id":77,"left_children":[1,3,5,7,9,11,